1190 64
10005 1.0 0.0 0.9986793556928092 0.0022972485570126725 0.9980659622901676 0.002306529983519824 0.9988912558392842 0.0038377199543299808 0.9974568843916476 0.005864475049361308 0.9963445698021625 0.0053276549023322 0.9974809996217614 0.0058238478389749495 0.9969426296631773 0.007749581799473729 0.9960284264000917 0.007504593200367105 0.9974927309915801 0.007897703987907064 0.9975532754325268 0.010446795847206702 0.996193343969247 0.0111395644290398 0.996922763924744 0.011551182565110773 0.9967539439828709 0.014141022739574322 0.9945925510667798 0.015015796211979286 0.9944830370011418 0.014576027253867849 1.0 0.0 0.9999798337848614 0.00234129790587198 0.9999193806739557 0.004681012020243861 0.99981877705263 0.007017564634867607 0.9996782495037628 0.0093493901754434 0.9994981137230814 0.01167494118739926 0.9992787730093101 0.013992694224782982 0.9990207163377891 0.016301155610876063 0.9987245160285817 0.01859886703990833 0.9983908250223907 0.020884410990203852 0.9980203737798385 0.023156415920217405 0.9976139668217848 0.025413561220219785 0.9971724789303856 0.02765458189385017 0.9966968510324856 0.029878272945366442 0.9961880857887117 0.03208349345017888 0.9956472429132436 0.034269170288138376
10006 1.0 0.0 0.9987961483130454 0.001850226620126058 0.9982931187541529 0.0015300918230667627 0.9993892483676207 0.0026649809714835646 0.9983844653138988 0.004738313130804759 0.997112821071552 0.004431278333715803 0.9980564815681969 0.004608232005001874 0.997703369502762 0.006539372187551876 0.996181872761268 0.006490050515317744 0.9969841913929719 0.005937814779914816 0.9975206303419998 0.007649358419980282 0.9961623234004503 0.008263896911385899 0.9966372462529669 0.007519985932282154 0.9978398947801078 0.00904498004688966 0.9967486432062994 0.010551868733883188 0.996535858874477 0.010070720089051147 1.0 0.0 0.9999815590017885 0.0016252315158608805 0.9999263292674223 0.003248362351652675 0.9998345894532372 0.00486731162781298 0.9997068002534579 0.0064800378055011355 0.9995435988538092 0.008084557709794948 0.9993457912720428 0.009678964786223055 0.999114342689112 0.01126144635148586 0.998850365901897 0.012830299612990712 0.9985551080537614 0.014383946248683459 0.998229935822446 0.015920945358367123 0.9978763192655628 0.017440004619987206 0.9974958145419577 0.01893998950892533 0.9970900457422169 0.020419930464840527 0.9966606860733862 0.021879027918665 0.996209438651408 0.023316655121612868
10011 1.0 0.0 0.9980994276602148 0.003656619216421354 0.996476838890341 0.004544209207313764 0.9953402813417563 0.00671568637278896 0.9915736028755077 0.007461250343421793 0.9898620091478302 0.005137937367653456 0.9899646300310899 0.004591040663147638 0.98859982001898 0.0034656369486190694 0.9898945368778758 0.0009032993754146427 0.9923943050845851 0.0016277545005922228 0.9924756432626408 0.0025425688692415557 0.9940594030492063 0.002539766570155662 0.9953435552786745 0.00550498559618537 0.9934442946993373 0.007502086804104966 0.9929695241628467 0.007608987456594788 0.992335780578371 0.009658255490930391 1.0 0.0 0.999659869440242 0.003606021338736076 0.9986688460474215 0.007019998569637083 0.9971121922126751 0.010067828522567091 0.9951228206181254 0.012609521132004331 0.9928684711354493 0.014552011968918735 0.9905355857538444 0.01585736197448688 0.9883114849258335 0.016545554365949792 0.9863666128281801 0.01669164016819598 0.9848386049458812 0.016417548688246617 0.9838197410314775 0.01587941027276035 0.9833489997278101 0.015251682253961648 0.9834094636730991 0.014709680554758305 0.9839312835788935 0.014412268044598777 0.9847998516365389 0.01448642217824891 0.9858683152674808 0.015015202567686277
10015 1.0 0.0 0.9987961483130454 0.0018502266201260585 0.9982931187541529 0.0015300918230667624 0.9993892483676207 0.0026649809714835646 0.9983844653138988 0.0047383131308047595 0.997112821071552 0.004431278333715803 0.9980564815681969 0.004608232005001874 0.997703369502762 0.006539372187551876 0.996181872761268 0.006490050515317744 0.9969841913929719 0.0059378147799148155 0.9975206303419998 0.007649358419980282 0.9961623234004503 0.008263896911385899 0.9966372462529669 0.007519985932282154 0.9978398947801078 0.00904498004688966 0.9967486432062994 0.010551868733883188 0.996535858874477 0.010070720089051147 1.0 0.0 0.9999815590017885 0.0016252315158608805 0.9999263292674223 0.003248362351652675 0.9998345894532372 0.00486731162781298 0.9997068002534579 0.0064800378055011355 0.9995435988538092 0.008084557709794948 0.9993457912720428 0.009678964786223055 0.999114342689112 0.011261446351485859 0.998850365901897 0.012830299612990712 0.9985551080537614 0.014383946248683459 0.998229935822446 0.015920945358367123 0.9978763192655628 0.017440004619987206 0.9974958145419577 0.01893998950892533 0.9970900457422169 0.020419930464840527 0.9966606860733862 0.021879027918665 0.996209438651408 0.023316655121612868
10016 1.0 0.0 0.9987799093947959 0.001661991126236231 0.9982725148845721 0.0011344594320804157 0.9993412996625545 0.0020813295452878507 0.9982760735448643 0.0038869434610738734 0.9970542609739995 0.00326551929675983 0.9980676652803154 0.0032232933733197197 0.9977143374555221 0.0048678842523430105 0.9963590862611919 0.004459149761879965 0.9974058518382156 0.003753909976874875 0.9980076932605382 0.005335917413091437 0.9968171597432386 0.00568099138688823 0.997587439078197 0.004901499412134581 0.9987893878834618 0.006504598634601346 0.9976579954326475 0.007814907962851909 0.9976237350454908 0.0072507851735917365 1.0 0.0 0.9999896458385535 0.0014855160079882122 0.999958600185067 0.002970358056786457 0.9999069134681803 0.004453854182093133 0.9998346695228616 0.005935336400857632 0.9997419852722774 0.007414142680631869 0.9996290102844467 0.0088896188835061 0.9994959262056933 0.01036112067634484 0.9993429460734882 0.011828015399198397 0.9991703135118037 0.01328968388396385 0.9989783018126467 0.014745522215604786 0.998767212907947 0.016194943428511226 0.9985373762364766 0.01763737913088803 0.9982891475109427 0.01907228105040058 0.998022907390847 0.020499122494678536 0.9977390600671273 0.021917399720680988
10017 1.0 0.0 0.9987961483130454 0.0018502266201260585 0.9982931187541529 0.0015300918230667629 0.9993892483676207 0.002664980971483564 0.9983844653138988 0.004738313130804759 0.997112821071552 0.004431278333715803 0.9980564815681969 0.004608232005001874 0.997703369502762 0.006539372187551876 0.996181872761268 0.006490050515317744 0.9969841913929719 0.0059378147799148155 0.9975206303419998 0.007649358419980282 0.9961623234004503 0.008263896911385899 0.9966372462529669 0.007519985932282154 0.9978398947801078 0.00904498004688966 0.9967486432062994 0.010551868733883188 0.996535858874477 0.010070720089051147 1.0 0.0 0.9999815590017885 0.0016252315158608805 0.9999263292674223 0.0032483623516526756 0.9998345894532372 0.00486731162781298 0.9997068002534579 0.0064800378055011355 0.9995435988538092 0.008084557709794948 0.9993457912720428 0.009678964786223054 0.999114342689112 0.01126144635148586 0.998850365901897 0.012830299612990712 0.9985551080537614 0.014383946248683459 0.998229935822446 0.015920945358367123 0.9978763192655628 0.017440004619987206 0.9974958145419577 0.01893998950892533 0.9970900457422169 0.020419930464840527 0.9966606860733862 0.021879027918665 0.996209438651408 0.023316655121612868
10030 1.0 0.0 0.9987961483130454 0.0018502266201260585 0.9982931187541529 0.0015300918230667629 0.9993892483676207 0.002664980971483564 0.9983844653138988 0.004738313130804759 0.997112821071552 0.004431278333715803 0.9980564815681969 0.004608232005001875 0.997703369502762 0.006539372187551876 0.996181872761268 0.006490050515317744 0.9969841913929719 0.0059378147799148155 0.9975206303419998 0.007649358419980282 0.9961623234004503 0.008263896911385899 0.9966372462529669 0.007519985932282154 0.9978398947801078 0.009044980046889663 0.9967486432062994 0.010551868733883188 0.996535858874477 0.010070720089051147 1.0 0.0 0.9999815590017885 0.0016252315158608807 0.9999263292674223 0.003248362351652675 0.9998345894532372 0.0048673116278129805 0.9997068002534579 0.006480037805501136 0.9995435988538092 0.008084557709794951 0.9993457912720428 0.009678964786223055 0.999114342689112 0.011261446351485863 0.998850365901897 0.012830299612990712 0.9985551080537614 0.014383946248683459 0.998229935822446 0.015920945358367126 0.9978763192655628 0.01744000461998721 0.9974958145419577 0.018939989508925333 0.9970900457422169 0.020419930464840527 0.9966606860733862 0.021879027918665 0.996209438651408 0.023316655121612868
10033 1.0 0.0 0.9987962067088187 0.0024621196851436124 0.9982937464828567 0.0027720346597640473 0.9993698828906812 0.004576552331816231 0.9982988771674247 0.007352586686247423 0.9969068829101196 0.00778115287472932 0.9976373975450785 0.0087294274616866 0.9969450860073339 0.01141672971760153 0.9949813294348198 0.012069196038425907 0.9952314391808431 0.012161249404492591 0.9950884691108892 0.01439416406507392 0.9929952102186973 0.015347827146259978 0.992730912831845 0.014788288680682493 0.9931838519676444 0.01632013212421241 0.99142029395609 0.01760902347445636 0.9907027359838858 0.01676205195053345 1.0 0.0 0.9999754006835404 0.0028869057832516007 0.9999016244921801 0.005772513771811914 0.9997787366639019 0.008655527865465109 0.9996068458085062 0.011534655349716925 0.9993861037276144 0.014408608580589044 0.9991167051631941 0.01727610665975331 0.9987988874751234 0.020135877096818137 0.9984329302484628 0.022986657455607244 0.9980191548312369 0.025827196981305377 0.9975579238036862 0.028656258205386868 0.9970496403800779 0.03147261852529098 0.9964947477443059 0.03427507175586211 0.9958937283206528 0.037062429649634236 0.9952471029812092 0.03983352338310563 0.9945554301915792 0.04258720500622347
10039 1.0 0.0 0.9988575812591338 0.0017864754148367095 0.9984440334166046 0.001451413432032863 0.999730472132592 0.0025432542608862588 0.9990471744051056 0.0047662068199466065 0.9979152491992833 0.00476150439818017 0.9989785446257167 0.005092111222937962 0.998930188448218 0.007369690912108797 0.9973766192987156 0.007930268934455507 0.9979007201900516 0.007639496677388673 0.9984767519921876 0.009568775403937867 0.9969060611828685 0.010765778730064183 0.9967163048383458 0.010158311665129146 0.9977256102274004 0.011424708131262125 0.996540984965725 0.013143741178277263 0.9956559854205633 0.012602946610395746 1.0 0.0 0.9999923793971616 0.001815895496144355 0.9999695205452669 0.0036315551612278426 0.9999314323105708 0.0054467433595624115 0.9998781294581452 0.007261224845927714 0.9998096326338691 0.009074764960110572 0.999725968339253 0.010887129820612374 0.9996271688991349 0.01269808651724913 0.9995132724222989 0.01450740330237051 0.9993843227550724 0.016314849780426507 0.9992403694279771 0.01812019709561287 0.9990814675955096 0.01992321811732934 0.9989076779691463 0.02172368762318848 0.9987190667436707 0.0235213824793163 0.99851570551694 0.02531608181769037 0.9982976712032036 0.027107567210265762
10040 1.0 0.0 0.9988524243468629 0.0015536283364547942 0.9984329999881745 0.0009804629452622548 0.9997052485845341 0.0018365878648199884 0.9989954082665411 0.0038030237471172188 0.9978565096195239 0.003522792154708902 0.9989175625608246 0.003588767161221325 0.9988498992145284 0.005577128294118071 0.9973145234430734 0.005811619520634502 0.997892308483159 0.0052194718447547825 0.998501252710857 0.006845058820404332 0.997001256614868 0.0076897658142929814 0.9969531721876669 0.0067637464006496595 0.9980851792955625 0.00775390242747009 0.997035415394077 0.009151824509269654 0.9963784709048495 0.008318335618012746 1.0 0.0 0.9999944018831547 0.0013432308910096761 0.9999776103954108 0.0026862713542017184 0.9999496341203408 0.004028931186410478 0.9999104873478928 0.005371020633351348 0.9998601900504177 0.006712350613004841 0.9997987678491687 0.008052732937735292 0.9997262519713466 0.009391980534726356 0.9996426791977672 0.010729907664318859 0.9995480918012618 0.01206633013584071 0.9994425374759252 0.013401065520523725 0.9993260692573521 0.0147339333611079 0.999198745434022 0.01606475537774049 0.9990606294499983 0.017393355669784553 0.9989117897991425 0.018719560913159825 0.9987522999110435 0.020043200552847907
10041 1.0 0.0 0.9987961483130454 0.0018502266201260585 0.9982931187541529 0.0015300918230667624 0.9993892483676207 0.0026649809714835646 0.9983844653138988 0.004738313130804759 0.997112821071552 0.004431278333715803 0.9980564815681969 0.004608232005001875 0.997703369502762 0.006539372187551876 0.996181872761268 0.006490050515317744 0.9969841913929719 0.0059378147799148155 0.9975206303419998 0.007649358419980282 0.9961623234004503 0.008263896911385899 0.9966372462529669 0.007519985932282154 0.9978398947801078 0.009044980046889663 0.9967486432062994 0.010551868733883188 0.996535858874477 0.010070720089051147 1.0 0.0 0.9999815590017885 0.0016252315158608807 0.9999263292674223 0.0032483623516526756 0.9998345894532372 0.0048673116278129805 0.9997068002534579 0.006480037805501136 0.9995435988538092 0.008084557709794951 0.9993457912720428 0.009678964786223055 0.999114342689112 0.011261446351485863 0.998850365901897 0.012830299612990712 0.9985551080537614 0.014383946248683459 0.998229935822446 0.015920945358367126 0.9978763192655628 0.01744000461998721 0.9974958145419577 0.018939989508925333 0.9970900457422169 0.020419930464840527 0.9966606860733862 0.021879027918665 0.996209438651408 0.023316655121612868
10042 1.0 0.0 0.9987961483130454 0.0018502266201260585 0.9982931187541529 0.0015300918230667629 0.9993892483676207 0.0026649809714835646 0.9983844653138988 0.004738313130804759 0.997112821071552 0.004431278333715803 0.9980564815681969 0.004608232005001875 0.997703369502762 0.006539372187551876 0.996181872761268 0.006490050515317744 0.9969841913929719 0.0059378147799148155 0.9975206303419998 0.007649358419980282 0.9961623234004503 0.008263896911385899 0.9966372462529669 0.007519985932282154 0.9978398947801078 0.009044980046889662 0.9967486432062994 0.010551868733883188 0.996535858874477 0.010070720089051147 1.0 0.0 0.9999815590017885 0.0016252315158608807 0.9999263292674223 0.003248362351652675 0.9998345894532372 0.0048673116278129805 0.9997068002534579 0.006480037805501136 0.9995435988538092 0.008084557709794951 0.9993457912720428 0.009678964786223055 0.999114342689112 0.011261446351485863 0.998850365901897 0.012830299612990712 0.9985551080537614 0.014383946248683459 0.998229935822446 0.015920945358367126 0.9978763192655628 0.01744000461998721 0.9974958145419577 0.018939989508925333 0.9970900457422169 0.020419930464840527 0.9966606860733862 0.021879027918665 0.996209438651408 0.023316655121612868
10050 1.0 0.0 0.9988390608411659 0.0014675776962773737 0.9984058323856524 0.0007978156324802437 0.9996407327114794 0.0015718751121010736 0.9988567023724058 0.003409141482549666 0.9976923821029957 0.002961857493636594 0.9987289188738933 0.0029079118520659725 0.9985733925692375 0.004723597659318257 0.9970345238082448 0.004702053741536568 0.997675737583827 0.003941057669904244 0.9982535147635827 0.00540033544961543 0.9967904903170157 0.005952833542268153 0.99692491902975 0.004836292085697702 0.9981275025619694 0.00574100172801912 0.9971329920799181 0.006908579981299364 0.9967305083012474 0.005905640340482353 1.0 0.0 0.9999938707098472 0.0012955291490473477 0.9999754852854282 0.002590859774645136 0.9999448510620174 0.0038857935104085885 0.9999019802555986 0.005180132303866897 0.99984688994867 0.006473678572881518 0.9997796020703994 0.007766235361418948 0.9997001433711588 0.009057606494464349 0.9996085453914788 0.010347596731863598 0.9995048444254625 0.011636011920883071 0.9993890814787176 0.012922659147278262 0.9992613022208661 0.014207346884664728 0.9991215569327012 0.015489885141987236 0.9989699004480697 0.016770085608886067 0.9988063920905615 0.018047761798762264 0.9986310956051059 0.01932272918934753
10052 1.0 0.0 0.9988524243468629 0.0015536283364547944 0.9984329999881745 0.000980462945262255 0.9997052485845341 0.001836587864819988 0.9989954082665411 0.0038030237471172188 0.9978565096195239 0.003522792154708902 0.9989175625608246 0.003588767161221325 0.9988498992145284 0.005577128294118071 0.9973145234430734 0.005811619520634502 0.997892308483159 0.005219471844754782 0.998501252710857 0.006845058820404332 0.997001256614868 0.0076897658142929814 0.9969531721876669 0.0067637464006496595 0.9980851792955625 0.00775390242747009 0.997035415394077 0.009151824509269654 0.9963784709048495 0.008318335618012746 1.0 0.0 0.9999944018831547 0.001343230891009676 0.9999776103954108 0.0026862713542017184 0.9999496341203408 0.004028931186410477 0.9999104873478928 0.005371020633351346 0.9998601900504177 0.006712350613004841 0.9997987678491687 0.008052732937735289 0.9997262519713466 0.009391980534726356 0.9996426791977672 0.010729907664318855 0.9995480918012618 0.012066330135840709 0.9994425374759252 0.013401065520523722 0.9993260692573521 0.0147339333611079 0.999198745434022 0.016064755377740488 0.9990606294499983 0.017393355669784553 0.9989117897991425 0.018719560913159822 0.9987522999110435 0.020043200552847907
10053 1.0 0.0 0.9988186828306465 0.0017849879093703898 0.9983594970918735 0.00141963613217081 0.9995307454981768 0.0025193459495841844 0.9986282199167081 0.004620856461598255 0.9974044291441586 0.004392538122586542 0.9983705289525648 0.004625162241891521 0.9980502920418786 0.006656811992102157 0.9964512066093532 0.006747996007232263 0.9970984316804591 0.006223749026003544 0.9975352381618621 0.007914437265512891 0.9960128291568495 0.008531615613971633 0.9962493072580937 0.00762299739328963 0.9973678626177529 0.008850400500784037 0.9962631851298327 0.010125142542940096 0.9959883438416199 0.009311694698717551 1.0 0.0 0.9999909783446159 0.0018047089714727776 0.9999639175395474 0.0036090942089941134 0.9999188300633147 0.0054128322439870764 0.9998557366976774 0.007215600138267163 0.9997746665040016 0.009017075748347592 0.9996756567902185 0.010816937988676983 0.999558753068427 0.012614867093456102 0.9994240090031999 0.014410544876682477 0.9992714863506705 0.01620365499007441 0.9991012548884871 0.01799388317852909 0.998913392336737 0.019780917532773248 0.9987079842699579 0.02156444873886922 0.9984851240203629 0.023344170324243765 0.9982449125724177 0.02511977889991252 0.9979874584489276 0.02689097439857862
10056 1.0 0.0 0.9987961483130454 0.0018502266201260585 0.9982931187541529 0.0015300918230667624 0.9993892483676207 0.0026649809714835646 0.9983844653138988 0.0047383131308047595 0.997112821071552 0.004431278333715803 0.9980564815681969 0.004608232005001875 0.997703369502762 0.006539372187551876 0.996181872761268 0.006490050515317744 0.9969841913929719 0.0059378147799148155 0.9975206303419998 0.007649358419980282 0.9961623234004503 0.008263896911385899 0.9966372462529669 0.007519985932282154 0.9978398947801078 0.009044980046889663 0.9967486432062994 0.010551868733883188 0.996535858874477 0.010070720089051147 1.0 0.0 0.9999815590017885 0.001625231515860881 0.9999263292674223 0.0032483623516526756 0.9998345894532372 0.004867311627812981 0.9997068002534579 0.006480037805501137 0.9995435988538092 0.008084557709794951 0.9993457912720428 0.009678964786223055 0.999114342689112 0.011261446351485866 0.998850365901897 0.012830299612990715 0.9985551080537614 0.014383946248683463 0.998229935822446 0.01592094535836713 0.9978763192655628 0.017440004619987213 0.9974958145419577 0.018939989508925333 0.9970900457422169 0.020419930464840527 0.9966606860733862 0.021879027918665 0.996209438651408 0.02331665512161287
10064 1.0 0.0 0.9988524243468629 0.0015536283364547942 0.9984329999881745 0.000980462945262255 0.9997052485845341 0.001836587864819988 0.9989954082665411 0.0038030237471172188 0.9978565096195239 0.003522792154708902 0.9989175625608246 0.003588767161221325 0.9988498992145284 0.005577128294118071 0.9973145234430734 0.005811619520634502 0.997892308483159 0.005219471844754782 0.998501252710857 0.006845058820404332 0.997001256614868 0.0076897658142929814 0.9969531721876669 0.0067637464006496595 0.9980851792955625 0.00775390242747009 0.997035415394077 0.009151824509269654 0.9963784709048495 0.008318335618012746 1.0 0.0 0.9999944018831547 0.001343230891009676 0.9999776103954108 0.0026862713542017184 0.9999496341203408 0.004028931186410477 0.9999104873478928 0.005371020633351346 0.9998601900504177 0.006712350613004841 0.9997987678491687 0.008052732937735289 0.9997262519713466 0.009391980534726356 0.9996426791977672 0.010729907664318855 0.9995480918012618 0.012066330135840709 0.9994425374759252 0.013401065520523722 0.9993260692573521 0.0147339333611079 0.999198745434022 0.016064755377740488 0.9990606294499983 0.017393355669784553 0.9989117897991425 0.018719560913159822 0.9987522999110435 0.020043200552847907
10065 1.0 0.0 0.9987799093947959 0.0016619911262362311 0.998272514884572 0.0011344594320804157 0.9993412996625545 0.002081329545287851 0.9982760735448643 0.0038869434610738734 0.9970542609739995 0.00326551929675983 0.9980676652803154 0.00322329337331972 0.9977143374555221 0.0048678842523430105 0.9963590862611919 0.004459149761879964 0.9974058518382156 0.003753909976874875 0.9980076932605382 0.005335917413091437 0.9968171597432386 0.00568099138688823 0.997587439078197 0.004901499412134581 0.9987893878834618 0.006504598634601346 0.9976579954326475 0.007814907962851907 0.9976237350454908 0.007250785173591738 1.0 0.0 0.9999896458385535 0.0014855160079882124 0.999958600185067 0.0029703580567864577 0.9999069134681803 0.004453854182093135 0.9998346695228616 0.005935336400857635 0.9997419852722774 0.00741414268063187 0.9996290102844467 0.008889618883506104 0.9994959262056933 0.010361120676344841 0.9993429460734882 0.0118280153991984 0.999170313511804 0.013289683883963852 0.9989783018126467 0.01474552221560479 0.998767212907947 0.01619494342851123 0.9985373762364766 0.017637379130888038 0.9982891475109427 0.019072281050400583 0.998022907390847 0.02049912249467854 0.9977390600671273 0.02191739972068099
10076 1.0 0.0 0.9988524243468629 0.0015536283364547942 0.9984329999881745 0.000980462945262255 0.9997052485845341 0.001836587864819988 0.9989954082665411 0.0038030237471172188 0.9978565096195239 0.003522792154708902 0.9989175625608246 0.003588767161221325 0.9988498992145284 0.005577128294118071 0.9973145234430734 0.005811619520634502 0.997892308483159 0.005219471844754782 0.998501252710857 0.006845058820404332 0.997001256614868 0.00768976581429298 0.9969531721876669 0.0067637464006496595 0.9980851792955625 0.00775390242747009 0.997035415394077 0.009151824509269654 0.9963784709048495 0.008318335618012746 1.0 0.0 0.9999944018831547 0.001343230891009676 0.9999776103954108 0.0026862713542017184 0.9999496341203408 0.004028931186410477 0.9999104873478928 0.005371020633351346 0.9998601900504177 0.006712350613004841 0.9997987678491687 0.008052732937735289 0.9997262519713466 0.009391980534726356 0.9996426791977672 0.010729907664318855 0.9995480918012618 0.012066330135840709 0.9994425374759252 0.013401065520523722 0.9993260692573521 0.0147339333611079 0.999198745434022 0.016064755377740488 0.9990606294499983 0.017393355669784553 0.9989117897991425 0.018719560913159822 0.9987522999110435 0.020043200552847907
10085 1.0 0.0 0.9987799093947959 0.001661991126236231 0.9982725148845721 0.0011344594320804157 0.9993412996625545 0.002081329545287851 0.9982760735448643 0.0038869434610738734 0.9970542609739995 0.00326551929675983 0.9980676652803154 0.00322329337331972 0.9977143374555221 0.0048678842523430105 0.9963590862611919 0.004459149761879965 0.9974058518382156 0.003753909976874875 0.9980076932605382 0.005335917413091437 0.9968171597432386 0.00568099138688823 0.997587439078197 0.004901499412134581 0.9987893878834618 0.006504598634601346 0.9976579954326475 0.007814907962851907 0.9976237350454908 0.007250785173591738 1.0 0.0 0.9999896458385535 0.0014855160079882124 0.999958600185067 0.0029703580567864572 0.9999069134681803 0.004453854182093135 0.9998346695228616 0.005935336400857634 0.9997419852722774 0.007414142680631869 0.9996290102844467 0.0088896188835061 0.9994959262056933 0.010361120676344841 0.9993429460734882 0.011828015399198399 0.9991703135118037 0.01328968388396385 0.9989783018126467 0.014745522215604786 0.998767212907947 0.016194943428511226 0.9985373762364766 0.017637379130888035 0.9982891475109427 0.019072281050400583 0.998022907390847 0.02049912249467854 0.9977390600671273 0.021917399720680988
10135 1.0 0.0 0.9988004774208589 0.004533919800309853 0.9982959765912156 0.00693013157465461 0.9993737740279357 0.01083134494260097 0.9983092717834678 0.015756063230681936 0.9968769410483532 0.018385367580590183 0.997541115092566 0.02154957350496259 0.9967763908280372 0.026529548387332316 0.9946427042583011 0.029563278870492225 0.9946329338052898 0.03203728517410068 0.9942064493947893 0.03670851868542915 0.9916957777647862 0.04020876743197425 0.9908449537413195 0.04217102516187795 0.9906645585367914 0.04621342399990203 0.988131733670341 0.05011088372955439 0.9864085040090873 0.05182383559992423 1.0 0.0 0.9999566746213023 0.005928154381212862 0.9998267206507623 0.011854511799211797 0.9996102045653459 0.017777276532981213 0.9993072370943752 0.023694655344488606 0.998917973121201 0.02960485871664452 0.9984426115457372 0.03550610208703162 0.9978813951080634 0.041396607076004344 0.9972346101733434 0.04727460270776996 0.9965025864783743 0.05313832662307525 0.9956856968401255 0.058986026282136624 0.9947843568266889 0.06481596015646966 0.9937990243911098 0.0706263989082927 0.9927301994686228 0.07641562655620171 0.9915784235378685 0.08218194162583693 0.9903442791467107 0.08792365828428858
10136 1.0 0.0 0.9987700582861745 0.003972496049046145 0.9982361355786774 0.005787143572381664 0.999223298643987 0.009147711815292277 0.9979779223970852 0.01342250000337001 0.9964730310188014 0.015329530307804911 0.9970299870942928 0.01788818741050985 0.9959915400897887 0.02211165412704102 0.993780224206189 0.024203256380865085 0.9937811767472896 0.025939145090686077 0.9931087103955932 0.029789694260100103 0.9905539519591838 0.032146515632050045 0.989935981650276 0.0332121132913419 0.9896731793597328 0.036454356050566926 0.9871474350279219 0.039119367452036376 0.9859027196246596 0.03979555581678407 1.0 0.0 0.9999706925964309 0.004773781131750767 0.9998827822172789 0.009546515160139457 0.9997363043454324 0.014317155650828582 0.9995313180797936 0.019084657506545474 0.9992679060764907 0.02384797763315603 0.9989461744667351 0.028606075602794403 0.9985662527514828 0.03335791431307756 0.9981282936731035 0.03810246064144285 0.9976324730643045 0.04283868609365741 0.9970789896746044 0.047565567445561965 0.9964680649746896 0.052282087377126404 0.9957999429390304 0.05698723509791238 0.9950748898071752 0.06168000696305752 0.9942931938241842 0.06635940707891724 0.9934551649606941 0.07102444789752349
10139 1.0 0.0 0.9985921009031585 0.004925602079881393 0.9977001882187229 0.007616756291720466 0.997965906235081 0.011917188352317795 0.9955917353444542 0.016735640463198496 0.9931147670822508 0.018929176030054055 0.9923924010677371 0.02197825998089335 0.9895273472126667 0.026055395795797666 0.9860029129192435 0.02742966214717348 0.9846978607729436 0.02888565539621966 0.9819846799501701 0.031849600557576276 0.9781325502832853 0.03237337208232575 0.9767436000161356 0.0322731706781206 0.9748016256640022 0.03408691470220547 0.97132092579421 0.03403251747982801 0.9702599274512794 0.03277179144710011 1.0 0.0 0.9998529787444053 0.006361880341586068 0.999412850725634 0.01270250652682861 0.9986824139602248 0.019000805266372704 0.997666301155152 0.025236063066498487 0.9963709340911027 0.03138810130391708 0.9948044604828354 0.03743744557658897 0.9929766740297971 0.04336548752779652 0.9908989185589747 0.04915463742919509 0.9885839773397942 0.054788465917083834 0.9860459488155999 0.06025183340332055 0.9833001101459005 0.06553100582656542 0.9803627700863388 0.07061375556907504 0.9772511128476986 0.07548944653709484 0.9739830346698417 0.08014910258686647 0.9705769749202166 0.0845854586710977
10140 1.0 0.0 0.9987078720997005 0.006443641192685481 0.9980570219855833 0.010712498370033803 0.9987956120694441 0.016582771935863955 0.997138970673147 0.023251615017834213 0.9952797370458942 0.027494230068466678 0.9953515564682917 0.03253517058037882 0.9935644189406693 0.03906363301644732 0.9907540398917898 0.04327993905950922 0.9901237351336184 0.04738501870242035 0.9884314376331356 0.05345960836701074 0.9850301489500688 0.057686778252932655 0.9837195699007479 0.060920054881481334 0.9822784156467721 0.06632487702938474 0.9786692374386405 0.07062516376910889 0.9767281835726278 0.07319909230932563 1.0 0.0 0.9999088215911809 0.008518894558905964 0.9996353878008178 0.017032237137839128 0.9991800027271862 0.02553448432472817 0.9985431725014859 0.03402010981948391 0.9977256042416223 0.042483612930545034 0.9967282045928321 0.05091952700038812 0.9955520778604499 0.05932242773681896 0.9941985237415776 0.06768694142728385 0.9926690346638554 0.07600775301396163 0.9909652927409183 0.0842796140080181 0.9890891663554658 0.09249735022211783 0.9870427063821543 0.10065586930109637 0.9848281420637487 0.10875016803158452 0.9824478765551196 0.11677533941235121 0.9799044821507525 0.12472657946817871
10141 1.0 0.0 0.9986604941262084 0.0025327909291971073 0.9979893888132877 0.002801281757482391 0.9986615122918255 0.004634927527684964 0.9969305271397023 0.006941714648667546 0.995397340909393 0.006616650947897187 0.9959573728879112 0.007211442004295381 0.9947345813189644 0.008975044117237353 0.9932192575859239 0.008284702698965841 0.9942325166007444 0.008046014466105474 0.9940522723949116 0.009760776980981488 0.992852455084359 0.009545954951200735 0.99408606307956 0.009268383926475245 0.9945709423648872 0.011427827568646989 0.9932119848493866 0.012167542248703951 0.9938524221377683 0.012075592366088789 1.0 0.0 0.9999895723963322 0.002202736951005109 0.9999583059370541 0.004404837026084568 0.9999062496192097 0.00660566526048618 0.9998334849109933 0.0088045905046031 0.9997401254622188 0.011000987313571277 0.999626316700559 0.013194237815376748 0.9994922353151175 0.01538373355044275 0.9993380886293488 0.017568877275779948 0.9991641138657589 0.019749084726924254 0.9989705773052454 0.021923786331054546 0.9987577733443443 0.0240924288648768 0.9985260234540403 0.026254477051080676 0.9982756750441829 0.0284094150874188 0.9980071002379137 0.030556748102726426 0.9977206945608529 0.03269600353448947
10146 1.0 0.0 0.9988102892010073 0.002458662958055532 0.9983374370795973 0.002772865141623423 0.9994701547033626 0.004580708477469897 0.9984875450793904 0.007392505087892618 0.9971740308351805 0.007886111422559558 0.9979980225972561 0.00889348475875894 0.9974388432234784 0.011689361722402704 0.9955719933420079 0.012511858482621369 0.9958965320932252 0.01275884331734581 0.9958717929848806 0.015186746237655422 0.9938460943270317 0.016428477876679982 0.9935712206973526 0.016137032029901622 0.9940489197176157 0.017937921810868177 0.9922656551708815 0.019604721768241858 0.9913924969430145 0.019120979039591035 1.0 0.0 0.9999897365815745 0.0027211965953366844 0.9999589486617458 0.005442140932722614 0.9999076432447068 0.008162580880002416 0.9998358319969475 0.010882264556447646 0.9997435312365178 0.013600940458060973 0.9996307619180191 0.016318357582389923 0.999497549613348 0.01903426555268797 0.9993439244882167 0.021748414741261768 0.9991699212744924 0.02446055639184457 0.9989755792383924 0.027170442740837613 0.9987609421445839 0.029877827137262808 0.9985260582162456 0.032582464161272355 0.9982709800911465 0.03528410974106319 0.9979957647738131 0.03798252126804654 0.9977004735838555 0.040677457710125826
10154 1.0 0.0 0.9983370852293492 0.0066088586309150385 0.9972401135443963 0.010864978667438716 0.9966442120116504 0.01705173429317016 0.9929233287010434 0.022630254118027094 0.9902015030595465 0.025559557560902457 0.9882279798983172 0.030211725259509763 0.9835690295875791 0.033949921551664014 0.9804603788674042 0.03509800651678157 0.9783534715368006 0.03810940251388075 0.9739126235627275 0.040229738211368944 0.9713820771257378 0.040092498052497295 0.9698573225939349 0.0421319941944488 0.96608619812219 0.04338966856879013 0.9643148773107868 0.04271776935794391 0.9633263427552093 0.04443279039141037 1.0 0.0 0.9999381492606099 0.006110753254775906 0.9997528241336167 0.012216028682634605 0.9994447024857633 0.018310400559519605 0.9990149028036154 0.024388546438909437 0.9984649674814633 0.03044529648814915 0.9977968398696663 0.03647568011198768 0.9970128355182263 0.04247496904154657 0.9961156081598359 0.0484387161355572 0.9951081110754412 0.05436278922389868 0.9939935545715449 0.060243399419609406 0.9927753603703717 0.0660771234327395 0.9914571137702289 0.07186091953554771 0.9900425144728012 0.0775921369513414 0.988535326995999 0.08326851856629379 0.9869393315948646 0.08888819699235034
10155 1.0 0.0 0.9987841220480793 0.003657668140481517 0.9982675185898257 0.005167076871203628 0.999298910973171 0.008209491749613497 0.9981335625953551 0.0122138748763011 0.9966635892972575 0.013882622642104355 0.9972658144876386 0.01616074891266774 0.9963298503807164 0.02016737685214255 0.9941313842173125 0.022113013446309112 0.9941011226750661 0.023617280910121392 0.9934845215159228 0.02726499398083761 0.9908863768231444 0.029530590089935898 0.9901068422349854 0.030383996324288957 0.989798024105632 0.03335873667400772 0.9871732382259458 0.035896493544076404 0.9856440508996849 0.03632285239405385 1.0 0.0 0.9999768776416722 0.004205705641377173 0.9999075182281626 0.008410670292273539 0.9997919447368092 0.01261415337390014 0.9996301954395722 0.01681541513027274 0.9994223238676759 0.021013717038167828 0.9991683987621972 0.02520832221534644 0.9988685040106905 0.029398495826474046 0.9985227385699691 0.03358350548616953 0.9981312163751781 0.037762621658622264 0.9976940662353306 0.041935118053223766 0.9972114317154921 0.04610027201566818 0.9966834710058342 0.05025736491398581 0.9961103567777899 0.054405682518984366 0.9954922760275766 0.05854451537858404 0.9948294299073683 0.06267315918554553
10157 1.0 0.0 0.998628404972897 0.002547975383200357 0.997926832982271 0.002807090204245458 0.9985092960477622 0.004659357982889681 0.9966347913514817 0.006860421386688694 0.9951047281605624 0.006398663754612335 0.9956189670605428 0.0069969409314596985 0.9942416955735655 0.008616127717127367 0.9928032286246503 0.007744405525435521 0.9938266404310308 0.007610137870644336 0.9933733556844139 0.009267084210721442 0.9921344050515646 0.008817523741537365 0.9933026862662934 0.008620333605341774 0.9933115461573467 0.010637121903685773 0.9917850534320418 0.010812949271538964 0.9924836700846781 0.010470615234486428 1.0 0.0 0.9999850617454664 0.0021555958578453093 0.9999402943133731 0.004309778752453479 0.9998658394305822 0.006461142681283505 0.9997619324180146 0.008608295521009966 0.9996289008607904 0.010749865861963236 0.9994671627582042 0.012884509717134519 0.9992772241652288 0.015010917065204934 0.9990596763404384 0.01712781818813623 0.9988151924183558 0.01923398976519523 0.9985445236272148 0.021328260686865178 0.9982484950759732 0.023409517553915134 0.9979280011371197 0.025476709828940246 0.9975840004543073 0.02752885460993817 0.997217510606201 0.029565040997934337 0.996829602460018 0.03158443403329574
10158 1.0 0.0 0.9987737514742885 0.005259211589345059 0.9982238841728369 0.00837364785631961 0.9992000900344437 0.01302554860710922 0.9979570074454482 0.018651008123053082 0.996378775051745 0.02195366576769981 0.9968439816324832 0.025874944154618294 0.9957431071105995 0.03154366143477969 0.9933375188596331 0.035172443646111995 0.9930574689651425 0.03836990140035253 0.9921545874427982 0.043729599648786435 0.9892155577305204 0.04773242154512512 0.9880341253131382 0.050329927109667015 0.9872756886827536 0.055058453915023696 0.9841368473508076 0.059372696148602515 0.9820138887856339 0.061575839765132354 1.0 0.0 0.9999430627071052 0.006727654013200311 0.9997722889127185 0.013452606410926451 0.9994877928247096 0.020172158028946976 0.999089764639532 0.026883614601739967 0.9985784703175425 0.033584289202417364 0.9979542512690676 0.040271504671358295 0.9972175239518432 0.04694259602983073 0.9963687793806149 0.053594912874916634 0.9954085825498717 0.06022582175210206 0.9943375717708434 0.06683270850194657 0.9931564579240663 0.0734129805773102 0.9918660236289804 0.07996406932768643 0.9904671223321803 0.08648343224726959 0.9889606773160952 0.09296855518347162 0.9873476806300244 0.09941695450269879
10165 1.0 0.0 0.9987675853991639 0.002224542455730609 0.9982369839518936 0.0022664121547871503 0.9992408760508751 0.003815550314647978 0.9980442352105676 0.006212157975379921 0.9966652013932098 0.0061733324924002336 0.9974383263252267 0.006740882407920669 0.9967208784645668 0.008915888290193213 0.9949920915625101 0.008923480435040852 0.9956381863230706 0.008607281564920662 0.9957460950644823 0.010442145094473299 0.9941467871437504 0.010835154776698622 0.9946453075736658 0.010077499930430138 0.995578077154859 0.01164451966621204 0.9943382842901962 0.012753813207504737 0.9944635488241694 0.012067072841826534 1.0 0.0 0.9999837073718476 0.002339344399512268 0.999934846932281 0.0046778145270269115 0.9998534709689294 0.007014537827793912 0.9997396664711984 0.009348645176104276 0.9995935548958772 0.011679272576195148 0.9994152918401318 0.014005562846872493 0.999205066623019 0.016326667284517166 0.9989631017769796 0.01864174729921958 0.9986896524510718 0.020949976018886932 0.998385005728022 0.023250539856284568 0.9980494798574577 0.02554264003410914 0.9976834234079809 0.027825494063345207 0.9972872143410173 0.030098337170328074 0.9968612590096445 0.032360423668123764 0.9964059910858526 0.034611028268040495
10170 1.0 0.0 0.9971574419250075 0.011028006120675967 0.994307998117236 0.019464990865267 0.988362746372623 0.02922823798690222 0.9800967411474065 0.033953903903928453 0.9735091503321686 0.03815615846693518 0.9639791589634631 0.03973115152129652 0.9579047364113152 0.03744151882124928 0.9521914692514014 0.03620935806479417 0.9477471049507658 0.030888689945080438 0.9477361698229326 0.027221414516559666 0.9467675423702279 0.023611421927635923 0.9502141638392052 0.019567231424714285 0.9535803899019292 0.019844344023812566 0.9569868883099467 0.018972515035307273 0.9624293777196196 0.0221417802343407 1.0 0.0 0.9993432461143176 0.011213703190894401 0.9974540674519575 0.02206891067416556 0.9945504035235342 0.0322901096414054 0.9909204709458144 0.04173869630591944 0.9868393961069087 0.05041975039999078 0.9824993489126725 0.05844128793392328 0.9779777671042479 0.06594332578457071 0.9732532886678971 0.07302501320904187 0.9682605502715174 0.07969808368390541 0.9629601693272766 0.08588402226270843 0.9573946995769655 0.09145487112233312 0.9517072256337775 0.09630028761378984 0.9461142279951664 0.10039302529633444 0.940842586571797 0.10382546868653456 0.9360550170781318 0.10680103926544723
10171 1.0 0.0 0.9987629457358513 0.004595520409974621 0.9982129068044148 0.007034860823746992 0.9991672987670553 0.01103065761579153 0.9978673549987854 0.01593963235753738 0.9963011520291415 0.018485635123630356 0.9967717800056176 0.02170614632195557 0.9956062138485321 0.02658820008228102 0.9932568373105418 0.029332033294512623 0.9930922843239777 0.0317471200696303 0.992192586648951 0.03627082526008331 0.9893909645439322 0.039270602394344295 0.9885074538417076 0.0409976584198115 0.9879055197359676 0.04489485964523264 0.9850107196724909 0.04815638038232776 0.9833987164212863 0.049427643893155085 1.0 0.0 0.9999639656815243 0.00539178165396743 0.9998558789719139 0.010782191999297929 0.9996757885910056 0.016169860683466274 0.99942377567987 0.02155341926461508 0.9990999537129531 0.026931502163003877 0.9987044683753485 0.0323027476078076 0.9982374974054634 0.03766579857773313 0.9976992504034196 0.0430193037339383 0.9970899686056137 0.04836191834375817 0.9964099246259177 0.05369230519376647 0.9956594221640899 0.05900913549072832 0.9948387956820245 0.06431108974903116 0.9939484100485408 0.06959685866321594 0.9929886601534795 0.07486514396426892 0.991959970491938 0.08011465925837616
10172 1.0 0.0 0.9988493691849081 0.0017677003300792691 0.9984279845131252 0.0014108192106094548 0.999689531544068 0.0024982243520792918 0.9989516891798016 0.004695946761415407 0.9977883187375781 0.004652332639027834 0.9988073016730764 0.00498767738217935 0.998652677543779 0.007246620954593633 0.9970239202001775 0.007739923279957758 0.9974908100954487 0.007442737846675421 0.9979154497861923 0.009367465577901234 0.9962031971789951 0.010466541392166753 0.9959381455514472 0.009810475575679316 0.9967688231856384 0.011078914206727368 0.995363389436219 0.012674976926444856 0.9943689909251247 0.012011067868247393 1.0 0.0 0.9999955228121638 0.0017666888832153793 0.9999820920412723 0.0035332904836520556 0.9999597100644999 0.005299717561444916 0.9999283808415423 0.007065882962511001 0.9998881099112302 0.008831699661328008 0.9998389043867901 0.010597080803577899 0.9997807729497613 0.012361939748610853 0.9997137258425763 0.014126190111685021 0.9996377748598103 0.015889745805937855 0.9995529333381125 0.017652521084045004 0.9994592161448257 0.019414430579523172 0.999356639665315 0.021175389347633813 0.9992452217890103 0.022935312905844798 0.9991249818941876 0.024694117273807905 0.9989959408314961 0.026451719012810425
10184 1.0 0.0 0.9984229253553393 0.004306673935960667 0.997328653223412 0.00624359720407314 0.9970494730446333 0.009846243910337425 0.9938721618627719 0.013236592761795868 0.9912846767288931 0.0137255863041292 0.9902168319903006 0.015417771555932705 0.9868341809255746 0.01705432871917569 0.9843036971930208 0.015731483413403503 0.9840029426391269 0.015591367109267446 0.9818927587233638 0.015995953528130363 0.9806491322118046 0.013811001041753042 0.9819763988208152 0.013066527635400395 0.9816191161749724 0.013637405255708257 0.9816951376655285 0.01207212423622451 0.9842232683391894 0.012099441117226255 1.0 0.0 0.9998956030985064 0.004762564386660067 0.9995832507326428 0.009508619260281945 0.999065446151748 0.014221846476563566 0.9983463224187733 0.018886307604221414 0.9974315845859657 0.023486626275835167 0.9963284301360532 0.02800816168609707 0.9950454490518476 0.032437170540289044 0.9935925052211745 0.03676095496670101 0.9919806011952685 0.04096799416228461 0.9902217285913667 0.04504805783600448 0.9883287066591185 0.04899229984322562 0.9863150117114214 0.05279333076052658 0.9841946002501856 0.05644526852650943 0.9819817286941965 0.05994376666307485 0.9796907726385986 0.06328601998562133
10185 1.0 0.0 0.9986972546355015 0.005807841395504141 0.998057470576416 0.00942427936527599 0.9987875604618515 0.014661366020133786 0.9970965343146235 0.0206105784757286 0.9953162029359705 0.024087244919328087 0.9954728840957168 0.02843476396357234 0.9937229444349318 0.03415254141542278 0.9911565350869702 0.0374722784322445 0.9908511212554849 0.04085173301806513 0.9893817528441422 0.04613654982468884 0.9864458745327527 0.04944789006334107 0.9857713068783169 0.05204207304131008 0.9847730912551709 0.05686929400980908 0.9817859511344486 0.06041809389019989 0.9807127542090741 0.06257168583265263 1.0 0.0 0.9999320817579181 0.007313651562605616 0.9997283844190084 0.014623725561612096 0.9993890800437134 0.021926648831399546 0.9989144550612318 0.029218856991208995 0.9983049097634071 0.03649679880987445 0.9975609575985656 0.043756940537444174 0.9966832242676767 0.05099577019286578 0.9956724466258814 0.05820980179708951 0.9945294713930674 0.06539557954116779 0.9932552536778125 0.07254968187919401 0.9918508553196208 0.07966872553623085 0.9903174430549606 0.08674936942172352 0.9886562865131873 0.09378831843927822 0.9868687560489587 0.10078232718410438 0.9849563204182569 0.10772820351987442
10194 1.0 0.0 0.9987816335618158 0.004532167725370826 0.9982550925293086 0.006913691850782526 0.9992746167646325 0.010819664195932025 0.9981005177585597 0.015684838376496917 0.9966190709049091 0.01820879421343868 0.9972198647586611 0.021327376318358838 0.996304756511298 0.026176243067362333 0.9941355265559128 0.02897183135632565 0.9941530697904023 0.03131936508742938 0.9936239227468882 0.03582645422389917 0.9911301052038684 0.03898875339222689 0.9904675819754536 0.0407559895962597 0.9903165756928174 0.04468012959886969 0.9878634518855764 0.048240355585600185 0.9864924691977893 0.0497382746082452 1.0 0.0 0.9999571578997206 0.00586178641480926 0.9998286539995199 0.011721785009285715 0.9996145554795406 0.01757820926066075 0.9993149742341593 0.023429275239606664 0.9989300667633244 0.029273202902741966 0.9984600340206848 0.0351082173800884 0.9979051212187715 0.0409325502558132 0.997265617591558 0.046744440840604334 0.9965418561148026 0.052542137434043616 0.9957342131846441 0.0583238985753637 0.994843108254995 0.06408799428099889 0.9938690034343381 0.06983270726736703 0.9928124030426072 0.07555633415735077 0.9916738531288928 0.08125718666897974 0.9904539409507777 0.0869335927848521
10198 1.0 0.0 0.9987268806937153 0.0028101585228325655 0.9981616913399105 0.003402975526643596 0.9990649025780687 0.005544023685671287 0.99769110017849 0.008377906675678717 0.9963373766793879 0.008709886648727776 0.9971321341284154 0.009850917809712076 0.9962845982404671 0.012464534299793653 0.9947374661340413 0.012825536012114329 0.995617473119571 0.01330616859716224 0.9955532091712687 0.015940903527369373 0.9939733157039983 0.016912334882789835 0.994575710107368 0.01724579008172498 0.9949103453727846 0.019993857505304243 0.9930341060152477 0.02172275538414064 0.9927847999839456 0.02194949408364248 1.0 0.0 0.9999887274709636 0.0028120625757449068 0.9999549158634969 0.005623744587690233 0.9998985831042615 0.008434665983756015 0.9998197590301787 0.011244447734074162 0.9997184853272633 0.01405271233902924 0.9995948154452133 0.016859084333630158 0.9994488144879723 0.01966319078700483 0.9992805590805397 0.02246466179582272 0.9990901372123766 0.025263130970466372 0.9988776480578031 0.028058235912791968 0.9986432017738459 0.030849618684341405 0.998386919276055 0.03363692626389346 0.9981089319928582 0.036419810993269706 0.997809381599085 0.03919793101034217 0.9974884197293327 0.0419709506682229
10204 1.0 0.0 0.9979769787399879 0.0033439280260851713 0.9966596955772398 0.0037201729349832877 0.9957875553056744 0.005578386017119542 0.9929995270967791 0.005430420566914557 0.9934461394359403 0.0038613346582808696 0.9938691841015243 0.0052961922801630906 0.9925760500023219 0.0050705666778508825 0.9937827913694718 0.004888394845106336 0.9932842556184115 0.006726092273069307 0.9923148156893435 0.005791197960232777 0.9942346371026606 0.006142183650957571 0.9938707937343779 0.008398347415161317 0.9935123427572423 0.008590910277507274 0.994092836999317 0.010955025389103316 0.9911488719407294 0.012948722387426666 1.0 0.0 0.9997543856744373 0.0035446736329049753 0.9990315178520724 0.006980146048161735 0.9978722465286074 0.010204724017072437 0.9963411641040996 0.013131108788889874 0.9945216890685523 0.015692096031372463 0.9925097924840214 0.017844631665749615 0.9904069077223091 0.019571914283637717 0.9883126275329236 0.02088340968861831 0.9863178004610119 0.021812827969397777 0.984498590788534 0.022414290959933462 0.9829119677651232 0.022757071434367754 0.9815929509524046 0.022919400873969598 0.9805537728151166 0.022981909924229178 0.9797849434117619 0.023021279324165745 0.979258032077998 0.023104638993247405
10208 1.0 0.0 0.9987945064865842 0.0039249436693065435 0.9982882677372773 0.005706796047126086 0.9993522445988641 0.00900437261048396 0.9982533812760047 0.013296759759533906 0.9968180205841072 0.01527333423914274 0.9974740040589828 0.017814304334206218 0.9966591142290429 0.022130783174601706 0.9945277959745615 0.024447461950068694 0.9945489747484275 0.026252879296435234 0.9940887814602023 0.03023192030037962 0.9915973092854268 0.032946281238800536 0.9908476353141927 0.03417566578902151 0.990694568308929 0.03750730448575683 0.9882138149739486 0.04057006033208324 0.9866811516863051 0.04148098274365425 1.0 0.0 0.9999692978419862 0.004881028712255748 0.9998772034428668 0.00976095511956073 0.9997237530174302 0.014638677549445695 0.9995090068904251 0.019513095593660892 0.9992330494467611 0.02438311073842844 0.9988959890619031 0.02924762699246975 0.9984979580125669 0.03410555151207303 0.9980391123678488 0.03895579522247125 0.99751963186097 0.04379727343480843 0.996939719741828 0.04862890645797973 0.9962996026105877 0.05344962020464143 0.995599530232572 0.05825834679069713 0.9948397753347392 0.06305402512757942 0.9940206333840611 0.06783560150665928 0.9931424223481475 0.07260203017513113
10216 1.0 0.0 0.9987666694517808 0.0035622082937600444 0.9982328367569546 0.004962017087459163 0.9992138016107529 0.007911719888168724 0.9979526781017121 0.011753828694992391 0.9964559914764903 0.013212509805974377 0.9970220254749961 0.015336526734085873 0.995975753146853 0.019093998524744464 0.9938011817636567 0.020685940521581767 0.9938638122007448 0.021951597847512043 0.9932269013072528 0.02531151530899756 0.9907614581156219 0.02712548350664073 0.9902923956596681 0.02769194873454789 0.9901452777807653 0.03044740654096825 0.9877779821064623 0.03256142072435402 0.986785807152446 0.03273480729584192 1.0 0.0 0.9999774976922422 0.004114978169573246 0.9999099985809199 0.008229227352406434 0.9997975260935259 0.012342019010558803 0.9996401192480212 0.01645262550295473 0.9994378326111069 0.02056032053198443 0.9991907362399276 0.024664379587911137 0.9988989156073224 0.028764080390361674 0.9985624715107876 0.03285870332618371 0.9981815199653311 0.03694753188296205 0.9977561920804483 0.041029853077495806 0.9972866339214691 0.04510495787855039 0.9967730063555678 0.049172141623211305 0.9962154848827507 0.05323070442618184 0.9956142594521745 0.05727995158138289 0.9949695342641701 0.061319193955231145
10221 1.0 0.0 0.9979910428578429 0.0018450946692668104 0.9974773014439878 0.00045191167926978234 0.9982593504309656 0.0011717902200608628 0.9976524318833873 0.001034244930177842 0.9992863961630256 0.0013481926386617615 0.998376607736879 0.003974545237652282 0.9962910753329448 0.0027713801060159655 0.9978536521454395 0.0020481152458452848 0.997731937659569 0.0034018071842154087 0.9977696256013173 0.0030795761161056356 0.9981582077804861 0.004829469702671807 0.9956952053227454 0.004933270374993145 0.9965185925598671 0.002808675892236213 0.9979747934621084 0.004406170307068178 0.9967397253076065 0.005016899985496559 1.0 0.0 0.999954369481975 0.0014315391339510932 0.999819708901487 0.0028434535509119126 0.9996025964091445 0.0042171236599130866 0.9993136189329606 0.005535888367996972 0.9989668275773765 0.006785897609765487 0.9985790148685826 0.00795682014000142 0.9981688510686976 0.009042370149584507 0.9977559240390332 0.010040625596416705 0.9973597320992748 0.010954121870695553 0.9969986817491953 0.011789715985063296 0.9966891418678356 0.01255822829889938 0.9964446030949504 0.01327388024355811 0.9962749856808815 0.013953557021537982 0.9961861314429771 0.014615933266273527 0.9961795059832651 0.015280506706219351
10224 1.0 0.0 0.9988554437233006 0.0014285136856294152 0.9984415042980945 0.0007319052157812626 0.9997247568409076 0.0014630797278636766 0.9990332337528065 0.003311606017034929 0.9979082554505544 0.002919641219752128 0.9989849389672365 0.0028686942331493485 0.9989433265744725 0.00474847549983084 0.9974242743862779 0.0048874842548876024 0.9980100709146947 0.004189974357106134 0.9986404668978582 0.005711161651419134 0.9971535186053443 0.0064704489455044475 0.997098072016362 0.005447482804000092 0.9982366118247055 0.006327069443636815 0.9971952718749342 0.007634702787146528 0.9965180831322158 0.006704234406474043 1.0 0.0 0.9999981558968433 0.0009452989487628498 0.99999262439889 0.0018905405253748832 0.9999834079398888 0.0028356674082770255 0.9999705105734171 0.00378062237704261 0.9999539379688772 0.004725348362815932 0.9999336974058973 0.005669788498597779 0.9999097977671414 0.006613886169327181 0.9998822495295385 0.007557585061708793 0.999851064753938 0.008500829213735664 0.9998162570731981 0.009443563063857371 0.9997778416787293 0.010385731499743926 0.999735835305496 0.011327279906596243 0.9996902562154972 0.012268154214954457 0.9996411241797436 0.013208300947955831 0.9995884604587465 0.014147667267994641
10225 1.0 0.0 0.9985812812097881 0.00449327549369932 0.9977142028510645 0.006738329556636068 0.9979761029244133 0.010631944544031637 0.9955640785972483 0.014940061420420113 0.9931938495463233 0.016594942750843816 0.9925456674952828 0.019221135023814537 0.9896780961472511 0.022712909121542918 0.9864106416934788 0.023432702298554636 0.9853787945917488 0.024471125442217065 0.9827786866678563 0.026866872061922172 0.9793721191452076 0.026691060609068836 0.9785266616872874 0.02626375473917189 0.9768421571704071 0.027681891449062593 0.9739453081595981 0.02701094978275798 0.9736642849748173 0.025608749026821295 1.0 0.0 0.9998900451525545 0.005534687483876939 0.999560690794945 0.011055831220308298 0.999013463616051 0.016549973192977394 0.9982508952486374 0.022003826119104015 0.997276503120666 0.027404357001552717 0.9960947638945441 0.03273886852327433 0.9947110797386689 0.037995077597838385 0.9931317377411 0.043161190417627525 0.9913638628375159 0.04822597337547045 0.9894153646840806 0.053178819275719796 0.9872948789599446 0.05800980829660889 0.9850117036332172 0.06270976321665633 0.9825757307679498 0.06727029847338917 0.9799973744874773 0.07168386268213489 0.9772874957410506 0.0759437743054603
10237 1.0 0.0 0.9987670746625884 0.001957270897392309 0.9982412522499325 0.0017183156756603152 0.9992666584279108 0.00296641028745098 0.9981256567445737 0.00503843020559857 0.9968596097164691 0.004663730218485802 0.9978122716851149 0.004910139806559728 0.9973409726277305 0.006800480217691059 0.995924130205776 0.00659072993263659 0.996920459670619 0.006161876184963176 0.99737235689397 0.007998793919731214 0.9960788315309983 0.008506626890058062 0.9967999859665053 0.00797664024663504 0.9978180309917487 0.009846400892235705 0.9965113594748515 0.01127375134940615 0.9964175735946941 0.010880610694972127 1.0 0.0 0.9999868905227838 0.0019283751345916746 0.9999475836326392 0.003855885216866802 0.999882143868957 0.005781667776654719 0.999790678514063 0.007704865496281713 0.999673337169705 0.009624628757393401 0.9995303111670641 0.011540118152636182 0.9993618328132087 0.013450506950766935 0.9991681744777112 0.015354983504000908 0.998949647523934 0.017252753586705697 0.9987066010902547 0.01914304265490386 0.9984394207272359 0.021025098016454923 0.9981485268974456 0.02289819090224832 0.9978343733453031 0.024761618429248643 0.9974974453449532 0.0266147054467914 0.9971382578347597 0.028456806258128218
10241 1.0 0.0 0.998677533916613 0.0039679901406537935 0.9979802850656764 0.005736038211275196 0.9986125207820772 0.009109398754361165 0.996782257301836 0.01316499135065583 0.9948274956296854 0.014708824198173886 0.9947705532427576 0.017076566844601314 0.9927688162143328 0.020743928159117 0.9899304168820283 0.021928266432550594 0.9893365376938104 0.023082152896982518 0.9875685253295085 0.02602339662053113 0.9843588057446604 0.02685585422997897 0.9834543978764491 0.026841767655398092 0.9822818227426062 0.02891183004636388 0.9792249218637459 0.029541388124053297 0.9782217144543697 0.02864010648261301 1.0 0.0 0.9999163584690217 0.004962664953659167 0.9996656676832737 0.009917179964005785 0.9992486280637566 0.014855424628810286 0.9986664036489042 0.01976933748533701 0.9979206171182838 0.024650945124225967 0.9970133428627489 0.029492390878612936 0.9959470981377595 0.03428596295067954 0.9947248323466792 0.03902412184103297 0.9933499145106919 0.04369952695028744 0.9918261189914551 0.048305062226929686 0.9901576095416903 0.05283386074097068 0.988348921767545 0.0572793280689802 0.986404944094682 0.06163516438283133 0.9843308973376225 0.0658953851418062 0.9821323129788531 0.07005434029558752
10243 1.0 0.0 0.9983454304721934 0.0037103727968525986 0.9971706146823862 0.004908915717143777 0.9967925020135895 0.007642122016879068 0.9937004769606129 0.009774362712166106 0.9918186342746522 0.008963475019128617 0.9917268620942516 0.009658959898740826 0.9896849819177151 0.010295051815772586 0.9892061487682361 0.008629768048487313 0.9907006911279045 0.009191740515191027 0.9899803402581837 0.010518513662524522 0.9901613993239284 0.009964511027749463 0.9917378503455703 0.011702057845621986 0.9904958549405637 0.014130965272700817 0.9896107973791501 0.014191935974626188 0.9900576112607264 0.015892092180926295 1.0 0.0 0.9998339105970888 0.004141568454486279 0.999340950396103 0.008229243402693001 0.9985368045345584 0.012211335639872005 0.997446830319147 0.016040460266055358 0.9961049206788747 0.01967543333408031 0.9945519915411687 0.02308287629348319 0.9928341668136412 0.026238454021668925 0.9910007490563161 0.029127690541118995 0.9891020738361985 0.03174632754111881 0.9871873506827648 0.03410021346197068 0.9853025932870816 0.0362047339872069 0.9834887361602548 0.03808381713695126 0.9817800247094671 0.039768566622429447 0.9802027511728582 0.0412955946744044 0.9787743908668344 0.04270513932550348
10245 1.0 0.0 0.9981281578159195 0.008214887097127107 0.9964906521650503 0.014008223875366498 0.9949076831864384 0.02165606213425704 0.9898383208780984 0.028333683888268717 0.9856298674021108 0.03216717896672456 0.9817032628813787 0.03747958118557647 0.9749354639058639 0.04117091639696722 0.9698979343651613 0.042009727721506344 0.9655195991610698 0.044352925566656314 0.9590299311239328 0.04488471423828794 0.955056408338116 0.04302272417156899 0.9519513634758578 0.04306308774046155 0.9472492391291483 0.04145973137228518 0.9455060104524052 0.038210212914724255 0.9444772466877809 0.037403248182030516 1.0 0.0 0.9996494889177202 0.00960675151222462 0.9986055599367119 0.019123916613789427 0.9968906696264489 0.02846496875768779 0.9945410823294489 0.03754932255875027 0.9916052078912659 0.04630487122719812 0.9881414330888776 0.05467004029563552 0.9842155903538842 0.06259525338465824 0.9798982283672776 0.07004374859443108 0.9752618573625452 0.07699173075783489 0.9703783370161626 0.08342789150902466 0.9653165572130524 0.08935237219676519 0.9601405333612104 0.09477528072306061 0.9549080007944502 0.09971489964283257 0.9496695503200255 0.10419573738533149 0.9444683027192297 0.10824657631131837
10247 1.0 0.0 0.9985187826919003 0.004485366301507727 0.9975622325724678 0.006679143057934669 0.9976068554388288 0.010542503310559592 0.9948670635954459 0.014585889686848817 0.9923673806266058 0.015874430179988727 0.9914946701582791 0.018243020207757244 0.9883014293134638 0.021115742299034995 0.9851697414767169 0.021080794779838555 0.9842835746506573 0.021696145386359163 0.9816566766883514 0.023333424751758782 0.9788673808047804 0.022251180533265538 0.9787482688348885 0.021550705631029125 0.9774106426988121 0.022502827633450604 0.9755251366717664 0.021163595089562035 0.9764246390704255 0.019990542647031935 1.0 0.0 0.9998930382940874 0.005222456881856406 0.9995727253287476 0.010430910094350982 0.9990407721569168 0.015611462258218469 0.9983000125855439 0.0207504274070988 0.9973543764846154 0.025834433791275223 0.9962088528783275 0.030850523241342635 0.9948694432691865 0.035786246016415585 0.9933431057636749 0.040629750121250544 0.9916376906779772 0.04536986414970294 0.9897618684026344 0.04999617279719512 0.987725050394469 0.05449908428109225 0.9855373042414909 0.05886988901366371 0.983209263810747 0.06310080898610852 0.9807520355393261 0.06718503744229146 0.978177101964403 0.07111676854563417
10257 1.0 0.0 0.9987471241918748 0.006129512089949896 0.9981558604966315 0.01010027159190693 0.9990379294196639 0.015630277580302995 0.9976329132341466 0.02206112607862241 0.9959493286818046 0.026121046370756015 0.9962765188784253 0.03086600971017502 0.9949309430886982 0.0372569918796647 0.9924017802242441 0.04149440511051516 0.9920450159989184 0.0454271531165781 0.9909091584086747 0.05146399802706603 0.9878741603084269 0.05595524511471032 0.9867610034083937 0.05921134549140289 0.9858749263818869 0.06465689731250583 0.982684714581037 0.06944124973249399 0.9807927296332676 0.07227806250298081 1.0 0.0 0.9999145383760406 0.008340683148965557 0.9996582380785909 0.016676421712722832 0.9992313526918641 0.025002277600434324 0.9986343043929946 0.033313325696686186 0.9978676832584523 0.041604660315946826 0.9969322462954989 0.04987140161723778 0.9958289162011658 0.05810870196594724 0.9945587798519033 0.06631175222988102 0.9931230865277504 0.07447578799685034 0.9915232458755228 0.08259609570133837 0.9897608256161735 0.09066801864806953 0.9878375490021102 0.09868696292062344 0.985755292030857 0.10664840316358909 0.9835160804220432 0.11454788822714272 0.9811220863652484 0.1223810466633536
10267 1.0 0.0 0.9988566436963218 0.0015563422913859799 0.9984444734709553 0.0009901311021913656 0.9997304193767443 0.0018546233459038356 0.99904178041864 0.0038443881883265395 0.9979129475551403 0.00360215878452 0.9989792807540497 0.0037049901883631354 0.9989219859970035 0.005748014887090418 0.99737080804405 0.006060776833640447 0.9979061184761122 0.005536078377071236 0.9984747165388292 0.007231249463208616 0.9969037390232861 0.008170297294108776 0.9967357712160826 0.007316372591600905 0.9977474567986259 0.008349266423406767 0.9965604553421233 0.00980457009353449 0.9957072020567937 0.009000463703444197 1.0 0.0 0.9999976098084586 0.001237388166058848 0.9999904398950743 0.002474721326371537 0.9999784922429619 0.0037119445141451015 0.9999617701553015 0.004949002840454723 0.9999402782523202 0.006185841533082259 0.9999140224670746 0.007422405975240202 0.9998830100400319 0.008658641744143112 0.9998472495124623 0.009894494649388628 0.9998067507186423 0.011129910771110469 0.9997615247768814 0.01236483649786597 0.9997115840793795 0.01359921856422105 0.9996569422809268 0.01483300408799576 0.9995976142864547 0.01606614060713402 0.9995336162374541 0.017298576116161313 0.9994649654972715 0.018530259102194867
10268 1.0 0.0 0.9988255047414495 0.002973619620772264 0.9983682535561342 0.003815467463186414 0.9995447999403787 0.0061364396387010075 0.9986481578080665 0.009520204803961657 0.9973648588935959 0.010632316313811495 0.9982237888999326 0.012212403698746878 0.9977708352412396 0.01565892533702136 0.9959066406043915 0.01723742501048394 0.9961632984354459 0.01815504730991438 0.9961724809671834 0.021287092452649207 0.9940733950093442 0.0233982710053535 0.9935506463484707 0.023871491927022915 0.9938931182878933 0.026365157539992534 0.991927744230957 0.028922175574595668 0.9906043606174619 0.02924930069659439 1.0 0.0 0.9999837574699515 0.0035594351528603443 0.9999350337060701 0.007118432728315492 0.9998538401846689 0.01067655532193295 0.999740196024674 0.014233365875057549 0.9995941279752419 0.017788427847280155 0.999415670398444 0.021341305388403117 0.9992048652470442 0.024891563509735842 0.9989617620373926 0.028438768254554745 0.9986864178174731 0.03198248686756333 0.9983788971301436 0.035522287963189215 0.9980392719716153 0.039057741692556755 0.9976676217452212 0.04258841990897605 0.9972640332105378 0.046113896331790846 0.9968286004279144 0.049633746708430536 0.9963614246984909 0.053147548974513896
10272 1.0 0.0 0.9985172679247523 0.0023148863375018654 0.997756567189199 0.0021984460473620615 0.9981539985364575 0.0036931142694125673 0.9961212440238101 0.005006480185871256 0.9952283765154739 0.0036591197551572876 0.9963312452773132 0.004011799283868186 0.9954155694177158 0.00499651119341913 0.9953833987012276 0.0038564963583003356 0.9972306640902467 0.004725060209731515 0.9966183912593665 0.006729772895149583 0.9960778924814006 0.006461435872559293 0.997225699169987 0.007625401769200028 0.995928229709619 0.009710567339646278 0.9946019360045817 0.009082773411394247 0.9954775699346213 0.009431776496980543 1.0 0.0 0.9999879442569767 0.0018333897696626083 0.9999518202260194 0.0036655657848930255 0.9998917572308844 0.00549532099131913 0.9998079699111052 0.007321461690007698 0.9997007568784609 0.009142814103799914 0.9995704988491074 0.010958230810877335 0.9994176562643237 0.012766597002780095 0.9992427664163769 0.014566836525352027 0.9990464400994161 0.01635791766263624 0.9988293578085937 0.018138858625577504 0.9985922655137034 0.019908732709491568 0.9983359700365497 0.021666673086620437 0.9980613340639601 0.02341187720268882 0.9977692708308177 0.025143610749192153 0.9974607385097183 0.026861211186158935
10275 1.0 0.0 0.9988601986614463 0.0012542006615223781 0.9984542728349303 0.0003860147841098148 0.9997542897277835 0.0009425497299629745 0.999091686340526 0.002628287585089253 0.9979874025762965 0.0020838992464804864 0.9990874712072116 0.0018708674500001834 0.9990876817216499 0.0036027721053728647 0.9975936968398221 0.00361698930821771 0.998190097713355 0.0027776225433779208 0.9988551626529489 0.0041589987427849305 0.9973887529770309 0.004813080612109781 0.9973177306146352 0.0036664797996293877 0.9984645790632796 0.004399917066713383 0.9974346585622175 0.005599175801282846 0.9967168904241104 0.0045516258533634096 1.0 0.0 0.9999986750907616 0.000879019118162249 0.9999947008518739 0.001758001870073364 0.9999880787493639 0.0026369119189938173 0.9999788112250841 0.0035157129871785926 0.9999669016944286 0.004394368885302731 0.9999523545431359 0.0052728435418009055 0.9999351751231865 0.006151101032092487 0.999915369747793 0.007029105607663719 0.9998929456854964 0.007906821724978702 0.9998679111533636 0.008784214074191127 0.9998402753093057 0.009661247607628832 0.9998100482435105 0.010537887568023516 0.9997772409690105 0.01141409951645824 0.9997418654113877 0.012289849360005522 0.9997039343976274 0.013165103379029224
10278 1.0 0.0 0.9986262225653524 0.0023656446339364 0.9979244914870185 0.002401830989668454 0.9985768046214898 0.003960698680404983 0.9969028786090136 0.005858707289181492 0.9956992816026357 0.005132209667243918 0.9967031099831533 0.005559989344511164 0.9959249772822693 0.007252620959630581 0.9950084843239969 0.006711970042062322 0.9964199083956399 0.007072078133995547 0.996161358945823 0.009397100902585238 0.9947638149079893 0.00964551720232768 0.9955224962315418 0.009918061688645025 0.9950643857662546 0.012188404016679727 0.9930121050288708 0.012394845901729932 0.99332362998611 0.011748085498973132 1.0 0.0 0.9999465716284271 0.0023733123898593495 0.9997869017586349 0.004736266718306921 0.9995228256560305 0.007078661847406826 0.9991573673976494 0.009390607631040755 0.9986946885175927 0.011662673329068349 0.998140017483094 0.0138860276792862 0.9974995613405256 0.0160525681028617 0.9967804012067049 0.018155036731937607 0.9959903735833212 0.02018712120609401 0.9951379397351141 0.022143538482050397 0.9942320455904123 0.024020100232320405 0.9932819747915045 0.025813758766747606 0.9922971976387976 0.027522632788667147 0.9912872187346443 0.029146012687185308 0.9902614261390189 0.030684345460853232
10279 1.0 0.0 0.9988286810220481 0.004325897410274579 0.9983552580808691 0.006527113403526045 0.9995223206084766 0.010186520898891424 0.9986393737158383 0.014948545661583067 0.9973112062285914 0.01746778357281461 0.9981220249937929 0.02040042767641148 0.9976852193361976 0.025251189160572923 0.9957551880663561 0.028317817191702097 0.9958900167010835 0.03064264727542946 0.9958823710732092 0.035201094029552536 0.9936999142550595 0.03889017664706883 0.9929552634892118 0.040868302526121926 0.993191061097102 0.044811941383955715 0.9911137342107239 0.04901865012947184 0.9894570703678832 0.050979751601320775 1.0 0.0 0.9999513449158518 0.006202539836963215 0.99980540772705 0.01240291737625984 0.9995622725998711 0.018598971920194086 0.999222079729294 0.02478854596937104 0.998785025215879 0.030969486817747603 0.9982513608936043 0.03713964814277042 0.9976213941088714 0.04329689158897392 0.9968954874509346 0.049439088343420555 0.9960740584340845 0.05556412070137692 0.995157579131964 0.06166988362063295 0.9941465757644488 0.06775428626288717 0.9930416282375927 0.07381525352063933 0.9918433696371785 0.07985072752805164 0.9905524856764824 0.08585866915426185 0.9891697140989031 0.09183705947765668
10298 1.0 0.0 0.9988210840111679 0.002664108347798311 0.9983603121350764 0.0031920164510351834 0.9995252504338331 0.005203166493614797 0.9986042566213361 0.008257129954838183 0.9973156534310416 0.009022753781098408 0.9981691674341122 0.010269312426628145 0.9976887957836922 0.013354934114573948 0.9958320075425616 0.014534825632514372 0.9961217661559987 0.015077495486406743 0.9961338183952388 0.017820269253717894 0.9940750101754849 0.019483144040725205 0.9936549041339003 0.01953556361020342 0.9940703537879911 0.021627529329034344 0.9921988443219601 0.02371321122610688 0.991066218729572 0.02358703233104706 1.0 0.0 0.9999882003826965 0.0029719879582253955 0.9999528040442027 0.005943686532082967 0.999893818522815 0.008914806460436206 0.9998112563758547 0.011885058728469641 0.9997051351699143 0.014854154690495629 0.9995754774672273 0.0178218061923372 0.9994223108081709 0.020787725693146752 0.9992456676899332 0.023751626386521035 0.9990455855413709 0.026713222320774117 0.9988221066940931 0.029672228518231123 0.9985752783498131 0.03262836109340713 0.9983051525440089 0.035581337369937294 0.9980117861059508 0.038530875996126035 0.9976952406151424 0.04147669705898523 0.9973555823542426 0.04441852219663383
10299 1.0 0.0 0.9981857745786832 0.01561279589019288 0.9966231158721238 0.028945533256539844 0.9951841336212041 0.04434647838542383 0.9901666035045531 0.05929464989670311 0.9856117282808246 0.07176995842006914 0.9811345832686971 0.0861122074457269 0.9732230815118221 0.09957906226967624 0.966058905830986 0.11042744399988981 0.9589966332541835 0.12297889081398848 0.9487228241725499 0.13428840841335885 0.9395355829331692 0.14290365904395436 0.9305241502944946 0.1531156859855982 0.9185793417914547 0.1617935781174796 0.908089462384348 0.16778525317516538 0.8978734174256031 0.17533596926237635 1.0 0.0 0.9993950522174693 0.018467327296526555 0.9975894875608443 0.03680835368456947 0.9946107015798582 0.054900397962893956 0.9905029191289387 0.07262778278447743 0.9853251588495453 0.08988476744528548 0.9791486051413045 0.1065778512719273 0.9720535858908557 0.1226273219349999 0.9641263798030905 0.1379679853222662 0.9554560834024102 0.1525490803013041 0.9461317542774671 0.16633344686942117 0.9362400153422131 0.17929607408666262 0.9258632578293463 0.19142219976724936 0.9150785228244533 0.2027051632685225 0.9039570777415421 0.21314422346820086 0.8925646410368161 0.222742545476309
10304 1.0 0.0 0.9984309397756841 0.0073361150878045265 0.9973053532956258 0.012388823753663493 0.9969565213093956 0.019230099662611015 0.9935857079630105 0.026129252920998113 0.9904765029617603 0.03033937927637654 0.9886043849218015 0.03588519272993334 0.9840057736249451 0.041655879598105135 0.9795634040907202 0.044520013527031506 0.976836517692118 0.04838145874689507 0.9717412390474098 0.052771557746489325 0.9666641261802378 0.05422807709174948 0.9636868445715129 0.056431616667310704 0.9586704953979646 0.059538197621442975 0.9534454756791677 0.059796580731772464 0.9505725230452932 0.06055667833119838 1.0 0.0 0.9997159055011908 0.00935152087024033 0.9988662133990555 0.01865379729029307 0.9974586553122798 0.027858210965266174 0.9955059763814043 0.03691738336611191 0.9930257273705337 0.045785764574754605 0.9900399803867357 0.054420185781799454 0.9865749747679444 0.06278036478946077 0.9826607012464241 0.07082935507570472 0.9783304338277177 0.07853393041268553 0.9736202198989755 0.0858648986617058 0.9685683398679545 0.09279734014110674 0.963214748115622 0.0993107678317216 0.9576005072111992 0.10538920859346605 0.9517672271879363 0.11102120646222667 0.9457565212196593 0.11619975092529436
10313 1.0 0.0 0.9986187199743578 0.004284548914195117 0.9978138970566078 0.006338846680138299 0.9982186059209376 0.010019667326343176 0.9960335338556151 0.014223926184956054 0.9938174392706477 0.015824616062541704 0.9934033591397711 0.018328387045513057 0.9908839762404897 0.02187977258016424 0.9877815051128639 0.02276570466287561 0.9869392840974496 0.023818594214894025 0.9846972395505471 0.026423062931386687 0.9813783756961538 0.026635940279776393 0.9805478613125097 0.02634411516852626 0.9791245666694618 0.02803506054543105 0.9761863897623024 0.027902101415463815 0.9756681188586834 0.02669500364708548 1.0 0.0 0.9999020308993555 0.005309571071000022 0.999608501581591 0.010608164500776 0.9991205435525502 0.015884861220698515 0.9984400345191281 0.02112885887948215 0.9975695862525876 0.02632952913582227 0.9965125277317781 0.0314764736817758 0.995272883699412 0.03655957859034797 0.9938553488006218 0.04156906659473966 0.9922652575075869 0.04649554692396334 0.9905085500668425 0.05133006233989584 0.9885917347366283 0.05606413304412035 0.9865218466100861 0.06068979714891039 0.9843064033459853 0.06519964743519178 0.981953358151764 0.06958686415103149 0.9794710503837972 0.07384524363686967
10317 1.0 0.0 0.9980059717004934 0.0016117652957475844 0.9975089126317636 -1.0380577295906187e-05 0.9983447601836404 0.00047449211560244474 0.9977919790862999 0.00013930014402389424 0.999489499372971 0.00021619821428856526 0.9987234154892928 0.002666180642019024 0.996693897070309 0.0013485629306789965 0.99833227876577 0.000416095629055811 0.9983631114809746 0.0016551465065090597 0.998457516473154 0.0012250070220231044 0.9990089045483934 0.002838103039475544 0.9966494011290987 0.002988182722919341 0.9974284333534196 0.0007682318704479734 0.9990415250918363 0.002250181380771702 0.9978614625026183 0.002934803785269026 1.0 0.0 0.9999566574246048 0.0010694724836015793 0.9998287379546563 0.0021201895291242698 0.9996224607878442 0.003134333243691131 0.9993478446378753 0.004095913868387442 0.999018206052695 0.00499156880603386 0.9986494926035899 0.005811230069417756 0.9982594843430017 0.006548626721810321 0.9978669035266927 0.007201597146272392 0.9974904771904243 0.00777219550526084 0.99714799953246 0.008266587060303613 0.9968554410626993 0.008694737596699711 0.9966261491366348 0.009069912510636713 0.9964701799149529 0.009408010649282539 0.9963937952067345 0.009726766270814301 0.9963991493956003 0.010044859096460601
10322 1.0 0.0 0.9988245751115129 0.0014849106652262607 0.9983755287449674 0.0008241074714365809 0.99956623960141 0.0016278418411679227 0.9986936536994345 0.003450438627074026 0.9974849056353102 0.002956791477684119 0.9984628990083788 0.0029141956202119817 0.9981653071251019 0.0046866560853616405 0.9965579926876956 0.004537324889529243 0.9971743364398028 0.003742085793355534 0.9976003707917916 0.00515437816176679 0.9960425100681639 0.005512781090862387 0.9962083315521123 0.00429888859361397 0.9972950614736725 0.005180416755665418 0.996167987937513 0.006132619831334961 0.9958355463257695 0.00495849838393617 1.0 0.0 0.9999975946975496 0.0011406970815137276 0.9999903797398834 0.0022813264029205465 0.9999783579749446 0.003421820267597326 0.9999615341456033 0.004562111105809219 0.9999399148841072 0.0057021315379557356 0.9999135087043242 0.006841814437579424 0.9998823259917847 0.007981092994058508 0.9998463789915367 0.009119900774905244 0.9998056817938326 0.010258171787592309 0.9997602503176584 0.011395840540830057 0.9997101022921373 0.012532842105218338 0.9996552572358212 0.013669112173197238 0.9995957364339036 0.014804587118222192 0.9995315629133801 0.015939204053089684 0.9994627614161896 0.017072900887341202
10324 1.0 0.0 0.9981977173464613 0.0024621025579876967 0.9973850354492992 0.0020009238531628996 0.9977884949655205 0.003245128179548408 0.9964005667681541 0.0037085189922117785 0.9974228956092137 0.0031177778984802598 0.9982100662110449 0.005793980483283563 0.9958872092409645 0.007025347729705997 0.9955900737908079 0.00635904902685775 0.995265781114915 0.007498792118826272 0.9940095026693603 0.006691496516240213 0.9958636333814108 0.006186444178601557 0.9962004186338917 0.008798731977700704 0.9944826801317126 0.009128963169240641 0.9950095601443998 0.009084311025596837 0.9942112421157092 0.010357236957612724 1.0 0.0 0.999914706041585 0.002512140756828042 0.999661051742483 0.004999228096691179 0.9992456396424478 0.0074370402240086534 0.9986792097264846 0.009802987585547167 0.9979762536013131 0.012076852683742785 0.9971544950173435 0.014241441614819545 0.9962342564439596 0.016283123258631394 0.9952377356979326 0.018192236363591446 0.994188219986009 0.019963349839576858 0.9931092670238588 0.02159536719615669 0.9920238840472956 0.023091472023293962 0.9909537354955552 0.024458917474479827 0.9899184089248002 0.02570866864215985 0.9889347663536924 0.026854912282146454 0.9880164048468882 0.027914453332120916
10325 1.0 0.0 0.9988040911242535 0.002958945274225607 0.9983192991648311 0.0037743795353730875 0.9994252869046076 0.006094685533906347 0.9983945448331327 0.00941496275477777 0.9970311061898104 0.010418287179366102 0.9977828570495803 0.011959509117834262 0.9971079201389221 0.015281432121693174 0.9951195297549507 0.016613950523452346 0.995302018233616 0.017397335497729986 0.995069145295328 0.020351405627825205 0.9928190429780159 0.022071644011931804 0.9923156010588284 0.022270182997287138 0.9924906677292858 0.024552244275968055 0.9903758347945522 0.026618300747249458 0.9891970278458926 0.026514450751504957 1.0 0.0 0.9999864824954192 0.0032708845636183104 0.9999459332670984 0.006541418827868691 0.9998783621682894 0.009811252668678497 0.9997837856110464 0.013080036312330194 0.9996622265511922 0.016347420510050586 0.999513714467306 0.019613056711895265 0.9993382853337671 0.02287659723969523 0.9991359815878957 0.026137695458834254 0.9989068520912447 0.029396005948627672 0.9986509520851071 0.03265118467107575 0.9983683431403073 0.035902889137767346 0.9980590931013582 0.03915077857471329 0.9977232760250787 0.04239451408489198 0.9973609721137612 0.04563375880829399 0.9969722676430048 0.048868178079256905
10327 1.0 0.0 0.9987202756985469 0.002412113324542219 0.9981511120579311 0.0025996444615691574 0.999038530866504 0.004340288534497277 0.9976355453948439 0.006739816285542693 0.9962900846517408 0.006618365036185301 0.9970908256192222 0.007330211173963443 0.9962264943928812 0.00946962085088834 0.9947301818281848 0.009322333139094176 0.995679737634704 0.009351105541930404 0.9956360258022495 0.011499819131904463 0.9941528639127067 0.011923420599073373 0.9949025595816374 0.011786020067343929 0.9953088103691595 0.014052516492589996 0.9935737731715708 0.015198246071800954 0.9935691441043929 0.014920019020817217 1.0 0.0 0.9999917210004929 0.002328745762915506 0.9999668888079238 0.004657206196303994 0.9999255178297047 0.006985096398761342 0.9998676320434006 0.009312132324075729 0.9997932649446399 0.011638031206192844 0.9997024594743799 0.01396251198103178 0.9995952679257114 0.01628529570411487 0.9994717518304471 0.01860610596298572 0.9993319818257858 0.020924669283403738 0.9991760375013934 0.023240715528319644 0.9990040072273022 0.025553978288655833 0.9988159879630681 0.02786419526493712 0.9986120850486809 0.030171108638841572 0.9983924119777643 0.03247446543376786 0.9981570901536558 0.03477401786354476
10329 1.0 0.0 0.9987767787176463 0.00279422639534957 0.9982617566553053 0.003424555520600877 0.999286355014775 0.0055862018408607056 0.998103881701359 0.008649158808393198 0.996686583464988 0.009327276622917038 0.9973702330165508 0.010632383660388902 0.9965108881202933 0.01359171801059644 0.9945235052231767 0.01441473553124317 0.994804457093248 0.01486936285875118 0.9944853742950651 0.017448094382002777 0.992338828685571 0.018561713664943417 0.9921806413562808 0.018399648333409676 0.9924484258728967 0.020447954155562154 0.9904980801460019 0.02198172579369381 0.9898506699172311 0.021568285205766265 1.0 0.0 0.9999883860508546 0.0029097691932800413 0.9999535475849218 0.005819226247763492 0.9998954947423584 0.008728059242504539 0.999814244408918 0.011635956691879282 0.9997098201942207 0.014542607762298388 0.999582252401389 0.017447702487783923 0.9994315779881129 0.020350931984035432 0.999257840519215 0.023251988660613374 0.9990610901108146 0.026150566430871866 0.9988413833661977 0.029046360919277453 0.9985987833035166 0.03193906966575563 0.9983333592754651 0.03482839232671351 0.9980451868810832 0.03771403087239319 0.9977343478698649 0.04059568978021836 0.9974009300383593 0.04347307622380477
10333 1.0 0.0 0.9987873004226682 0.0019499769681702093 0.9982865051902438 0.0017335947831116204 0.9993529609835613 0.0030199620842590747 0.9982555739709137 0.005219709243395012 0.9969148939234435 0.005031407690820477 0.9977218285428369 0.005409893693052043 0.9970808423804927 0.0074691006264153365 0.9953039973917138 0.007432472361518823 0.9958315163506346 0.00695847724703921 0.9959018226375224 0.008642616754904891 0.9941444421288214 0.008975541947315814 0.994357801840465 0.007982525769811585 0.995153686668775 0.009215699910922795 0.9937468122020665 0.010114671278344315 0.9935424472201659 0.009053205023171702 1.0 0.0 0.9999949269196843 0.0016433404559062267 0.9999797104376448 0.0032865066388940516 0.9999543588262509 0.004929324489026761 0.9999188858582879 0.006571620371968347 0.9998733107852362 0.008213221290877799 0.9998176583069165 0.009853955097217959 0.999751958532553 0.011493650700120102 0.9996762469333249 0.013132138273948013 0.9995905642864854 0.014769249463708533 0.9994949566111513 0.016404817587959378 0.9993894750958706 0.018038677838869432 0.9992741760181 0.019670667479091936 0.9991491206557284 0.02130062603511648 0.9990143751908067 0.02292839548677207 0.9988700106056473 0.02455382045256043
10347 1.0 0.0 0.9988628820050439 0.001416396572610208 0.998459696285718 0.0007134841241918226 0.9997667011208388 0.0014342984073044977 0.9991176260840056 0.003296347822220712 0.998015708160553 0.0029396775981194536 0.9991149697269534 0.0029094435915793574 0.9991233002529634 0.004839064288426704 0.9976160041580854 0.005073416492454027 0.9981779475752368 0.00444287801353951 0.99881825514912 0.006036582662710824 0.997304183127553 0.006932906875265744 0.9971425939075411 0.006013406102579007 0.9982047087059844 0.006953048231620294 0.9970787127517279 0.008386020746656456 0.9962066519097441 0.007559790992666266 1.0 0.0 0.9999979479220618 0.0011430089642896666 0.9999917921738282 0.0022859753455685815 0.9999815342116098 0.003428856589075011 0.9999671764611413 0.00457161019651803 0.9999487223154078 0.005714193754244834 0.9999261761316073 0.006856564961326463 0.9998995432272483 0.007998681657534824 0.9998688298753884 0.009140501851184035 0.999834043299019 0.01028198374680932 0.9997951916645998 0.011423085772656686 0.9997522840747517 0.012563766607956967 0.9997053305601147 0.01370398520995797 0.9996543420703767 0.01484370084068863 0.9995993304644857 0.01598287309342949 0.9995403085000514 0.017121461918863986
10348 1.0 0.0 0.9988554437233006 0.0014285136856294152 0.9984415042980945 0.0007319052157812626 0.9997247568409076 0.0014630797278636766 0.9990332337528065 0.003311606017034929 0.9979082554505544 0.002919641219752128 0.9989849389672365 0.0028686942331493485 0.9989433265744725 0.00474847549983084 0.9974242743862779 0.0048874842548876024 0.9980100709146947 0.004189974357106133 0.9986404668978582 0.005711161651419134 0.9971535186053443 0.006470448945504447 0.997098072016362 0.005447482804000092 0.9982366118247055 0.006327069443636816 0.9971952718749342 0.007634702787146528 0.9965180831322158 0.006704234406474042 1.0 0.0 0.9999981558968433 0.000945298948762849 0.99999262439889 0.0018905405253748819 0.9999834079398888 0.002835667408277024 0.9999705105734171 0.003780622377042608 0.9999539379688772 0.004725348362815929 0.9999336974058973 0.005669788498597775 0.9999097977671414 0.006613886169327177 0.9998822495295387 0.007557585061708789 0.9998510647539378 0.008500829213735659 0.9998162570731981 0.009443563063857366 0.9997778416787293 0.01038573149974392 0.999735835305496 0.011327279906596235 0.999690256215497 0.01226815421495445 0.9996411241797436 0.013208300947955822 0.9995884604587465 0.014147667267994633
10349 1.0 0.0 0.9982796253031349 0.0036984883325046924 0.9971204462426458 0.004855777525792515 0.9965449742789512 0.007667710234612256 0.9931856235743369 0.00944749602798395 0.991499295465257 0.008403941623013325 0.9911559697963969 0.009141035435425538 0.9888983454104271 0.009055431317089305 0.9890225747701897 0.007044795797035191 0.9903857906861825 0.007748624545204953 0.9896242856053807 0.008171048103782594 0.9908557964248619 0.007369000145560691 0.9924004666803855 0.009527953697096832 0.9912496553825596 0.011030023269890004 0.9917876120260761 0.011085640786537012 0.9922200606498337 0.013602379272949758 1.0 0.0 0.9999190978976608 0.0037711246966679914 0.9996772436074297 0.007527813701152619 0.999276977198617 0.011255856640080877 0.9987224792096887 0.014941489070540178 0.998019492533001 0.01857160378933357 0.9971752155221769 0.022133948465593415 0.9961981687173392 0.025617305546905486 0.9950980381648883 0.029011650808617243 0.9938854988165551 0.03230828741994643 0.9925720219147462 0.035499952976034505 0.9911696705977154 0.03858089757758366 0.9896908881812005 0.04154693171315286 0.9881482836880298 0.0443954433965718 0.9865544192017106 0.0471253847157412 0.9849216035149346 0.04973722864173935
10361 1.0 0.0 0.998857778134783 0.001545241590018066 0.9984471232399628 0.0009685455085128919 0.9997367835059197 0.001821175097485281 0.9990553001866944 0.003802146460864012 0.9979310218892153 0.00355363922586966 0.999002968581604 0.003646518967262343 0.998957500206838 0.00568337386610533 0.9974137798525827 0.00599665572779207 0.9979531482273795 0.005467043609247683 0.9985344738809935 0.007158138050268216 0.9969731819843919 0.00810440455238519 0.9968050842821233 0.007253079605915737 0.9978252160866334 0.00828321541190979 0.9966485255432063 0.00974948493689532 0.9957900705373569 0.00895612282921956 1.0 0.0 0.9999976343358501 0.0012318241418766385 0.9999905379870139 0.002463594421195399 0.9999787128837487 0.0036952570131760327 0.9999621622412058 0.004926758168556775 0.9999408905565162 0.006158044251261693 0.9999149036047152 0.007389061775957866 0.9998842084335081 0.008619757445465849 0.9998488133568855 0.009850078187987027 0.999808727947592 0.011079971194111644 0.9997639630284562 0.012309383953571541 0.9997145306625911 0.013538264291701844 0.9996604441424765 0.014766560405576215 0.9996017179779297 0.015994220899780573 0.9995383678829836 0.01722119482179053 0.9994704107616763 0.018447431696918256
10372 1.0 0.0 0.9987977719435297 0.003981737181594315 0.998294085037976 0.00582210936792882 0.9993673674432766 0.009172007550493258 0.9982884996862095 0.013527591662805583 0.9968607369573972 0.015573729791196034 0.997528800406701 0.018167567203737224 0.9967472906371095 0.022551065132034784 0.9946285630811943 0.024953968530075893 0.9946532992562718 0.02681834148521951 0.9942300419283184 0.030861317994221548 0.9917564397440001 0.033675110546781295 0.9909941277969818 0.034972746523829375 0.9908689262888348 0.03835582424670048 0.9884124325227506 0.04151812493872425 0.9868514048328316 0.04250528189970401 1.0 0.0 0.9999720028799066 0.0049584472054883455 0.9998880215780565 0.0099159510815587 0.9997480862612784 0.014871568826394583 0.9995522471794214 0.019824358692741576 0.99930057462311 0.02477338051358711 0.99899315886469 0.029717696225922283 0.9986301100824668 0.03465637039195188 0.9982115582683553 0.03958847071712402 0.9977376531190876 0.04451306856435646 0.9972085639111559 0.049429239463844234 0.9966244793596838 0.054336063617841386 0.9959856074614584 0.0592326263998193 0.9952921753223678 0.06411801884741486 0.9945444289695193 0.06899133814859297 0.993742633148336 0.07385168812046172
10380 1.0 0.0 0.998848785440583 0.0012212017961757632 0.9984297862295076 0.0003118173818169094 0.9996960318216711 0.000839661320216115 0.9989671497021569 0.0024594048340108544 0.9978327540785926 0.0018181498431288805 0.9989003297209484 0.0015460561253151021 0.9988118403784667 0.0031756082056275925 0.9972919024537851 0.003015822296220813 0.9979141943577482 0.0020676225706763376 0.9985254100333139 0.0033383617531723207 0.9970557541328599 0.003771031645073821 0.9971021674135233 0.0024734691410176718 0.9982812847356862 0.0031352845585425775 0.9972723295536304 0.0041373089973274785 0.9967470667195274 0.0029277781189826287 1.0 0.0 0.9999986312393863 0.0007954117546205 0.999994525535186 0.0015907824328059864 0.9999876846197402 0.0023860709944073318 0.9999781113783323 0.003181236471808988 0.9999658098462667 0.003976238006100335 0.9999507852047805 0.004771034883132606 0.9999330437757956 0.005565586569423477 0.9999125930155165 0.006359852747871478 0.9998894415068781 0.00715379335324273 0.9998635989508575 0.00794736860739261 0.9998350761566501 0.00874053905418536 0.9998038850307316 0.009533265594074873 0.999770038564807 0.010325509518310391 0.9997335508226664 0.011117232542731052 0.9996944369259604 0.011908396841113948
10385 1.0 0.0 0.9985138832527434 0.002259385082241359 0.9977204549365485 0.002066353121768345 0.9981389508312376 0.0034293533054310485 0.9961971459040153 0.00468470262795771 0.9953491918658315 0.003327020128568159 0.9965451029342397 0.0036908016214214105 0.9956628606336106 0.004892388889806616 0.9953475735341552 0.003962086427131042 0.9968282979205313 0.004799316321419273 0.9958215614354032 0.006717059595833448 0.9947140604145082 0.006067973442514488 0.9956167390876995 0.0064048256904880915 0.994543523465282 0.007767309626390032 0.9935367327165489 0.0065328024303220045 0.9951164477764746 0.006297197497304158 1.0 0.0 0.9999831242726995 0.0016655771021675673 0.9999326100405521 0.003328672217868195 0.9998487950822409 0.004986825033865505 0.999732238804511 0.006637618368946826 0.9995837169435534 0.0082786992060604 0.9994042142224666 0.009907799089992694 0.9991949150393826 0.011522753689345005 0.998957192280791 0.013121521330211237 0.9986925943735768 0.014702200319589513 0.9984028307070669 0.016263044889066443 0.998089755572785 0.017802479603562862 0.9977553507844861 0.01931911209577259 0.9974017071541977 0.02081174400419407 0.997031005011327 0.022279380011166677 0.9966454939612642 0.023721234896883065
10396 1.0 0.0 0.9985791499768403 0.003709058091888768 0.9977276433811512 0.005145730701219344 0.9980161059071122 0.008205649334795607 0.9956613315030662 0.01160008622908943 0.9934579717119818 0.012283096023820902 0.9930575167323703 0.013927729915745698 0.9905348728128598 0.016359335987182866 0.987831774699504 0.01600060688417339 0.9875172636652942 0.016064585380411806 0.9857461514219197 0.017507119930079564 0.9834224113392218 0.016458816861230012 0.9838090611758926 0.015427203542682733 0.9833712403280894 0.016399294103717384 0.9818859683818044 0.01544171686538716 0.9830691918640052 0.014136520460460895 1.0 0.0 0.9999264064399812 0.004354063030640642 0.9997059247260044 0.008699763934327072 0.9993394497346259 0.013028788260562562 0.9988284662039277 0.017332916556330177 0.9981750387054481 0.021604070979220628 0.9973817977167696 0.025834360856131597 0.9964519219054819 0.030016126849824583 0.9953891167651998 0.03414198340726138 0.9941975897730698 0.03820485917798828 0.9928820222654494 0.04219803510776265 0.9914475382540218 0.046115179931970736 0.9898996704282191 0.04995038281499308 0.9882443236113386 0.053698182905339585 0.986487735956908 0.05735359560188827 0.984636438188585 0.060912135353690326
10397 1.0 0.0 0.9986859064675335 0.009257282312168226 0.9979726321510058 0.01634943603137678 0.9985985443405031 0.02506789086224338 0.9967701827009081 0.03460660515721967 0.9946864279008178 0.04175259997002195 0.9944559178878704 0.049749498851085185 0.9922678581223864 0.05926556785576895 0.9889739425784531 0.06650230893515985 0.9877490547836932 0.07368670252288838 0.9853147508113876 0.08286387960834876 0.9810528412658118 0.09019654640622542 0.9787467494862896 0.09657276625422383 0.9761233981503435 0.10511846802352758 0.9711841216723903 0.11250982487851988 0.9677755530957088 0.11816675228383441 1.0 0.0 0.999827065419229 0.011997298493337574 0.9993086006828739 0.023980540267973492 0.998445621648941 0.03593570577733852 0.9972398175544744 0.04784884965433736 0.9956935452491624 0.05970613739026495 0.9938098211682845 0.07149388152396537 0.9915923110904687 0.08319857718332928 0.9890453177380522 0.09480693682574762 0.986173766289737 0.106305924029715 0.9829831878865353 0.11768278619635637 0.9794797012226597 0.1289250860271731 0.9756699923229315 0.1400207316527076 0.9715612926173837 0.15095800529602815 0.9671613554319556 0.1617255903648584 0.9624784310214449 0.17231259687673442
10400 1.0 0.0 0.998810579837753 0.0014240486692678456 0.9983445210080582 0.0006862086320151065 0.9995000511803686 0.001412702827414154 0.9985725976413393 0.0031009640044257865 0.9973736088030184 0.0024291275353038005 0.9983886212373939 0.0022429325491950067 0.9981113835711178 0.0038250814099026905 0.9966419722695307 0.003435443550913661 0.9974821707215478 0.0025125306185857987 0.9980761111847135 0.0038349862424364996 0.9967719910634213 0.004056715983220482 0.9973019874417741 0.002873122905052676 0.9986183921698036 0.003923883446270822 0.9976833070733705 0.004972799393399945 0.9976443172042974 0.004018503171073072 1.0 0.0 0.9999978011864378 0.0008676184270927426 0.9999912064983799 0.0017351377788373636 0.9999802211911973 0.0026024591118961548 0.9999648540154753 0.003469483746760583 0.9999451172044713 0.0043361133991870315 0.9999210264565851 0.005202250311058714 0.9998926009128641 0.006067797380483782 0.9998598631295764 0.006932658290940786 0.9998228390458909 0.007796737639284024 0.9997815579467141 0.008659941062423002 0.9997360524207354 0.009522175362492136 0.9996863583137438 0.010383348630329099 0.9996325146772812 0.011243370367082586 0.9995745637127134 0.012102151603773151 0.9995125507107906 0.01295960501863363
10405 1.0 0.0 0.998631122320339 0.004125055758112327 0.9978162526851593 0.006034428808297506 0.9982376152483787 0.009543374934504028 0.9961003924212606 0.0136656579755236 0.9938128490975671 0.01521940118707611 0.9933409613442665 0.017587082382689967 0.9908214262896065 0.02113262906988721 0.9874967645218453 0.02208133055894317 0.9863844639233929 0.022998046980669578 0.9839921724523358 0.02555925824299038 0.9802463741499498 0.025836130824171258 0.9788605455879028 0.025281959933006855 0.977108585972281 0.02669301301777539 0.9736018141000417 0.026438933016233016 0.9723138932086481 0.024691802036961207 1.0 0.0 0.9998780618135257 0.005253547374774018 0.9995129691364639 0.010489653405533168 0.998906881767327 0.015691004131977212 0.9980633799278064 0.02084053926210815 0.9969874352831247 0.02592157626881726 0.9956853707368972 0.03091793123000399 0.994164809362655 0.035814035374117356 0.992434612931671 0.04059504633302202 0.9905048105898123 0.04524695315336422 0.9883865183239459 0.04975667417566177 0.9860918499400853 0.05411214695660047 0.983633820350246 0.05830240948383517 0.9810262420321434 0.062317672013245985 0.9782836155847993 0.06614937894530173 0.9754210153532978 0.06979026024908448
10408 1.0 0.0 0.998786317409506 0.0036029397930836325 0.9982752021952541 0.005055901871211578 0.9993178164991295 0.008036701407935672 0.9981716932201536 0.011976037063409257 0.9967264995099768 0.01357408999207052 0.9973650116441559 0.01577070228072606 0.9964828009260756 0.019691055405704865 0.9943502807283647 0.021546907124827583 0.9944039619606576 0.02295012135039863 0.993900359381538 0.026494281306337943 0.9914364259119406 0.028662040813101964 0.9908132376198653 0.029413555786163288 0.9906985492304685 0.03229017028474388 0.9882973467267248 0.03475036307338296 0.987013078876096 0.0351100577604318 1.0 0.0 0.9999776942241414 0.004184340611920549 0.9999107839984983 0.008367984833730626 0.9997992906223538 0.012550236655191662 0.9996432495728031 0.016730400825279757 0.9994427104722314 0.020907783230471197 0.9991977370428623 0.025081691271444898 0.9989084070484633 0.02925143423767907 0.9985748122233099 0.03341632367942375 0.9981970581885368 0.03757567377653634 0.9977752643560267 0.041728801703673477 0.997309563820011 0.045875027991340245 0.9968001032365734 0.0500136768823062 0.9962470426912762 0.0541440766829069 0.9956505555551421 0.05826556010876047 0.9950108283292546 0.06237746462443985
10409 1.0 0.0 0.9987648099024339 0.00218957688387443 0.9982424514985132 0.0021949615779856243 0.999247904624489 0.003726360164824802 0.998038240192574 0.006087608425249326 0.996682609484362 0.006013037509472922 0.997470037300655 0.00659911528357789 0.9967199319043195 0.008777008617107623 0.9950017931575038 0.008772729675395816 0.9956534726779588 0.008534346631178715 0.9956631130033122 0.010448652287139292 0.9939794871195498 0.010863981960225042 0.9943990992620958 0.01021708975200763 0.9950939325429906 0.011908425650533901 0.9935796918762911 0.013008447167676906 0.9934730463392701 0.012341257134954287 1.0 0.0 0.9999935047929239 0.001989204066254162 0.9999740222703305 0.003978203748239653 0.9999415617228565 0.005966794906975439 0.9998961386173417 0.00795477389359006 0.9998377745705311 0.009941937793213087 0.9997664973123358 0.011928084667473266 0.9996823406387165 0.013913013795143255 0.9995853443542908 0.01589652591047462 0.9994755542047721 0.017878423438771565 0.9993530217993782 0.019858510728757175 0.9992178045233611 0.021836594281292802 0.9990699654408272 0.023812482974018223 0.9989095731880517 0.025785988281488797 0.998736701857483 0.027756924490394644 0.9985514308726771 0.029725108909457093
10414 1.0 0.0 0.9988106006504733 0.0023260672680718688 0.9983296480789949 0.0025075263625603593 0.9994558251044253 0.004169979629817969 0.9984744083686555 0.006843049526665624 0.9971417909900422 0.0071970278871413195 0.9979491090241862 0.008032097640033745 0.9974001272859594 0.01065976201249421 0.9955198605187087 0.011324187159887748 0.9958238997789797 0.011362558450041454 0.9958304274210246 0.01356971968759684 0.9938267735584622 0.014619459902572914 0.9935514525257539 0.014081338754356796 0.9941018129610671 0.01559671248791143 0.9924170469000121 0.01702649129226332 0.9916063331946257 0.016270292155177477 1.0 0.0 0.9999918287710381 0.0020959628394777666 0.9999673195024169 0.004191627391357929 0.9999264854430787 0.0062866956800382325 0.9998693486550986 0.008380870353456485 0.9997959399844726 0.010473854993734679 0.9997062990202833 0.012565354426474003 0.9996004740423018 0.014655075028254267 0.9994785219571101 0.016742725031894105 0.9993405082228363 0.018828014829031778 0.9991865067626134 0.020910657269590523 0.9990165998669039 0.022990367957697298 0.9988308780848201 0.025066865543629212 0.9986294401046198 0.027139872011368173 0.998412392623546 0.02920911296135096 0.9981798502072151 0.03127431788800958
10416 1.0 0.0 0.998683069795234 0.004446243776880787 0.9979571004352249 0.00670532640774486 0.9985736491963275 0.010539387275891543 0.9967517883912501 0.0151362186909064 0.9946845967002679 0.01725718572639339 0.9945156605269121 0.02011056255511396 0.992465081827005 0.02437973194087837 0.9893702205499084 0.026252954061604182 0.9884498771291442 0.02791220359672482 0.9864817590594636 0.03143622568052054 0.9828231008214965 0.033002676492744354 0.9812922581599501 0.03344570504335007 0.979698679386817 0.03593294384727819 0.9760132009401944 0.03719499923577932 0.974089612193817 0.03659489726976103 1.0 0.0 0.9998839470418466 0.005969060090497769 0.9995362247964887 0.011925037100027186 0.9989581406454348 0.017854912027639447 0.9981518652224217 0.0237457936239218 0.9971204199703501 0.02958498124847151 0.9958676598407318 0.035360026513691974 0.9943982512543045 0.04105879332407401 0.9927176454738172 0.046669515931749214 0.9908320475712125 0.05218085464346148 0.9887483812012712 0.05758194883108371 0.9864742494220266 0.06286246691727913 0.984017891828686 0.06801265302971696 0.9813881382922246 0.07302337004123133 0.9785943596160513 0.07788613873927441 0.9756464154440464 0.08259317289575654
